{"encoder.0.weight": [[-0.1153463900089264, -0.23193577527999878, -0.17419545352458954, 0.12499666213989258, 0.1581709772348404, 0.046714846044778824, 0.16275921761989592, -0.1905833065509796, -0.032416480034589766, -0.10020114928483963, 0.1519296407699585, 0.0007513255055528134, -0.006854408420622349, -0.036637783795595166, -0.19457723796367646, -0.07556565254926681, 0.009492189809679984, 0.15596972703933715, -0.29532102346420286], [0.04068111851811409, 0.3553068935871124, -0.10923979431390762, 0.0016532225534319877, 0.15335513949394225, 0.09960918575525284, 0.011672365851700306, -0.21158361732959746, 0.01959310583770275, 0.21583818197250365, -0.14651800990104674, 0.0849014863371849, -0.05969173759222031, 0.014950797520577907, 0.10881488770246506, 0.02411324009299278, -0.1697255253791809, -0.0629518210887909, -0.20259326696395874], [0.043428484350442886, -0.09025987982749939, 0.03424278646707535, 0.051441844552755356, -0.013766281306743622, -0.008351242169737816, 0.06351190060377121, 0.143500417470932, 0.025476450100541115, 0.09880179911851883, -0.0022215484641492367, -0.12349342554807663, -0.03106369636952877, -0.031136121600866318, -0.11545727401971817, -0.00610379409044981, -0.04186531528830528, -0.10523658990859985, 0.10791964828968048], [-0.4220817506313324, -0.25614604353904724, -0.15655716359615326, 0.10229060798883438, 0.01575768515467644, -0.038173696398735045, 0.040118773281574246, 0.05144994035363197, 0.09871286451816559, -0.11970195323228836, -0.01328796949237585, 0.146752068400383, 0.06185358315706253, 0.1524188369512558, 0.05022711455821991, -0.07412363439798356, 0.026481466367840767, 0.1260409027338028, -0.020611753314733507], [-0.1147385910153389, -0.04485779255628586, -0.0009212225559167564, -0.03010614961385727, -0.1033296287059784, -0.024800101295113564, -0.131155863404274, 0.10502007603645325, -0.10734070092439651, 0.12936817109584808, -0.06418929249048233, -0.017927296459674835, -0.02136627957224846, 0.059704799205064774, 0.034506771713495255, 0.026905320584774017, 0.015187923796474934, -0.034101467579603195, -0.03298315033316612], [0.4515108704566956, 0.13817105293273926, 0.1066874012351036, -0.05740951821208, -0.03296593986451626, 0.08566582053899766, -0.037862356007099154, -0.10417072474956512, 0.02158559374511242, -0.004204242199193686, 0.013636366464197636, -0.3282881021499634, -0.13182997405529023, 0.13414303064346314, 0.060223061591386795, 0.01506004724651575, 0.1334348976612091, 0.0687820553779602, -0.11834882944822311], [0.04102885350584984, -0.0012378912651911378, 0.08129558712244034, 0.01938658021390438, -0.09802696108818054, -0.05262719467282295, -0.0735686644911766, 0.010042702779173851, 0.049851711839437485, -0.08244909346103668, -0.016747012734413147, -0.05973174422979355, 0.028714943677186966, -0.18662551045417786, -0.1844365894794464, 0.025745652616024017, 0.046593017876148224, -0.10672019422054291, 0.044188644737005234], [0.2733882308006287, 0.28475592136383054, -0.08744292855262756, 0.0579031303524971, -0.23121561408042907, -0.05074316710233688, -0.061155525594949724, -0.16442326009273528, 0.06983821094036102, 0.2436008185148239, 0.0387816809117794, -0.06910764127969742, -0.07655944526195527, 0.05448880568146706, 0.021888254955410958, -0.13847914338111877, -0.1555807411670685, 0.010812062490731477, -0.2210097074508667], [0.03790389373898506, 0.3550958395004272, -0.04181421846151352, 0.029252751916646957, 0.029132483527064323, -0.029370011761784554, 0.02978376895189285, -0.12974799275398255, -0.07402258813381195, 0.08905131667852402, -0.12920721024274825, -0.011037643998861313, 0.04508813098073006, 0.01493530124425888, 0.11174162477254868, -0.14497192502021788, -0.022293531522154807, 0.006589636672288179, -0.1600318431854248], [-0.10243134945631027, -0.04605506360530853, -0.11184713989496231, 0.069181427359581, -0.04785504192113876, -0.10268904268741608, 0.05560171976685524, 0.08311273157596588, -0.04278987646102905, 0.003035247325897217, -0.0501643568277359, 0.12503351271152496, 0.0422024130821228, 0.060765285044908524, -0.0946129709482193, -0.11797294020652771, -0.0031999503262341022, -0.03138786181807518, -0.0064553855918347836], [0.08223093301057816, -0.14481961727142334, 0.014200151897966862, -0.03141304478049278, 0.03844841569662094, -0.05781473219394684, -0.1700696349143982, -0.11383266746997833, 0.09061450511217117, 0.13839559257030487, 0.03081759437918663, -0.05885897949337959, -0.016351722180843353, -0.011332234367728233, -0.0024381489492952824, -0.038531698286533356, 0.002362586557865143, -0.04313607141375542, -0.10108815133571625], [-0.05394631400704384, 0.1970980077981949, 0.044740863144397736, 0.039390933513641355, 0.28477248549461365, -0.025786532461643218, 0.153018119931221, -0.05388382971286774, -0.038267435133457185, 0.07566900700330734, 0.0359168753027916, 0.025173959508538245, 0.029060421139001848, -0.13690004348754883, -0.014017709158360958, -0.09020299464464188, 0.029490849748253823, -0.00487267579883337, -0.27324052453041076], [-0.483550888299942, 0.1345004379749298, 0.07420053333044052, -0.08916133344173431, 0.13049132227897645, 0.0684650182723999, 0.09128327518701554, 0.04195561781525612, 0.04248018488287926, -0.10511232763528824, -0.09959244281053543, 0.0849857747554779, 0.022252511605620383, -0.01196527350693941, 0.06730347573757171, -0.09652876853942871, 0.12044040709733964, 0.0882219448685646, -0.022193647176027297], [0.02102065086364746, -0.023072106763720512, 0.008455243892967701, 0.006733298301696777, 0.041649460792541504, -0.02729334868490696, -0.074640192091465, -0.0014710768591612577, -0.003608622355386615, -0.15046942234039307, 0.16349168121814728, -0.14780005812644958, -0.11975495517253876, -0.06688526272773743, -0.0700480043888092, 0.018150385469198227, 0.13248594105243683, 0.061273787170648575, -0.010638462379574776], [-0.5956771731376648, -0.0072752458043396475, -0.14723241031169892, -0.017468439787626265, 0.038306204974651335, 0.026392313465476037, 0.022567080706357955, 0.09232941418886184, 0.08276166915893554, 0.02670699991285801, 0.07583542168140411, -0.0118663240224123, 0.059995006769895554, 0.010275945998728275, -0.11579781174659728, 0.07379594892263412, -0.04629007428884506, 0.03974136412143707, -0.12689673751592637], [-0.1710338294506073, 0.0202938262373209, 0.04321462661027908, -0.08360105752944946, 0.027099676430225372, 0.08868534862995148, -0.011529996991157532, 0.059766411781311035, -0.06343252211809158, 0.059669580310583115, -0.00028087839018553495, 0.06407876312732697, -0.05420427769422531, -0.07972574979066849, -0.17934639751911163, -0.034100491553545, 0.06415197998285294, -0.043364088982343674, 0.021201422438025475], [-0.23185684978961946, 0.08968452215194703, -0.11804727166891098, -0.15439448952674867, 0.2151587873697281, 0.11457023471593857, 0.07853912711143493, -0.09540781080722809, -0.015615066513419151, -0.01177637167274952, 0.06872731894254684, -0.08581888377666473, 0.021732835471630095, 0.0005058010574430227, -0.06494238525629044, 0.02009187676012516, 0.031903331726789476, 0.18980931639671325, -0.13124946653842925], [-0.03513694889843464, 0.2351226180791855, 0.03612625151872635, -0.09875587224960328, -0.034851135313510896, -0.010345660988241434, 0.09364782720804214, 0.09527956843376159, -0.11940786987543106, 0.24328420162200928, 0.08989088237285614, 0.022602345794439316, 0.09875374734401703, -0.03423826135694981, 0.19237146973609925, -0.2341867208480835, -0.10776374340057374, -0.04027096778154373, -0.18309443891048433], [-0.05971837788820267, -0.06564544439315796, -0.09964958727359771, 0.15435495972633362, 0.17994831800460814, 0.09981824308633805, 0.08633502125740052, -0.4774585008621216, -0.052809488773345944, -0.08970198333263397, -0.005232569295912981, -0.08696707487106323, 0.06721789836883545, -0.08024979233741761, -0.009202353749424219, 0.03967037424445152, 0.045178504288196565, 0.1969738334417343, -0.2640189826488495], [0.03724207207560539, -0.15194666385650635, -0.19951067566871644, 0.08863038569688797, 0.3180745840072632, -0.05142756849527359, 0.12700986564159394, -0.05855481401085853, -0.07301102429628373, -0.08856604993343353, -0.03563892245292664, 0.09002255797386169, -0.134979248046875, -0.0032172479666769506, -0.05081260651350021, 0.06952532976865769, -0.038393447548151015, 0.18142189383506774, -0.20897311866283416], [-0.14765640199184418, 0.15991311073303222, -0.2320907324552536, -0.05708390474319458, -0.25676395297050475, -0.02625366859138012, 0.08494468182325363, -0.06542214751243591, 0.1192372903227806, 0.10254147201776505, 0.07569359540939331, 0.04775107279419899, -0.012228426896035672, -0.12797220945358276, 0.17482718229293823, -0.12004857063293457, -0.05696582272648811, 0.12901317179203034, -0.08512206673622132], [0.17165160179138184, -0.15695272386074066, -0.15764304995536804, -0.12487683445215225, -0.17166855931282043, 0.11101379990577698, -0.06132754310965538, 0.05964021012187004, 0.00308687100186944, -0.011674118228256702, 0.021279672160744667, -0.0657777488231659, -0.04278277978301048, -0.036162834614515305, -0.028987720608711243, 0.018486302345991135, 0.04255841672420502, -0.09893157333135605, -0.03515952080488205], [0.04564801603555679, -0.03306727856397629, -0.02717263624072075, -0.08868016302585602, 0.11802849173545837, 0.012169482186436653, 0.006013507954776287, -0.042861875146627426, -0.11398188769817352, -0.004095152020454407, 0.027012880891561508, -0.047932274639606476, -0.11043219268321991, 0.15374259650707245, 0.06370561569929123, -0.11440260708332062, 0.0008397568017244339, -0.06716030836105347, 0.006527576595544815], [-0.22693384289741517, -0.159780877828598, -0.16156519651412965, 0.027790040150284766, 0.1706516534090042, -0.027822069823741913, 0.07822013348340988, -0.038081948459148404, -0.08631984740495682, -0.07724884003400803, 0.07587536275386811, 0.1361539751291275, 0.057250408083200456, 0.07206059247255325, -0.11359011083841324, 0.014246921427547932, -0.020764937996864317, 0.1448347806930542, -0.1884572684764862], [-0.6425477504730225, 0.1531152218580246, -0.020074777491390704, -0.0321926012635231, 0.07321730703115463, 0.05257616713643074, -0.14329178631305695, -0.06877450868487359, 0.010712750256061554, -0.09447087347507477, 0.12295046746730805, 0.0648779809474945, 0.12929511517286302, -0.010448322258889675, 0.00517145860940218, 0.06079718917608261, 0.14532914757728577, 0.04022018387913704, 0.1433718591928482], [-0.04140451848506928, 0.13781738579273223, -0.1269901841878891, -0.055339941382408143, -0.14620729088783263, -0.056325032562017444, -0.08230376839637757, -0.235493803024292, -0.01294378824532032, 0.08760544806718826, 0.12120372653007508, -0.07329703271389007, 0.10893826484680176, 0.12422187924385071, 0.2291437566280365, -0.12788984477519988, 0.08878270387649537, -0.11050471216440201, -0.21621513068675996], [0.030150284990668297, -0.09046446532011032, -0.017853468656539917, -0.015714531764388084, 0.09110803157091141, -0.04766204208135605, 0.03987325727939606, -0.037157949060201645, 0.045117609202861786, -0.0849212110042572, -0.014616807922720909, -0.007685172371566296, -0.04692862182855606, -0.06034892797470093, -0.034315600991249084, 0.10075774043798447, -0.07804575562477112, -0.07940183579921722, -0.11013375967741013], [0.05352858453989029, 0.06892890483140945, -0.03180794417858124, -0.19257335364818573, -0.11659575998783112, -0.034496065229177475, 0.09203553199768066, -0.06779683381319046, -0.08448127657175064, 0.11653894186019897, -0.09811373054981232, 0.03690594807267189, -0.06027716025710106, -0.07575862109661102, 0.027809947729110718, 0.07623885571956635, -0.03804948180913925, 0.03277048096060753, -0.003977146930992603], [-0.21285982728004454, 0.27162798643112185, -0.19877843856811522, -0.04924919456243515, -0.19407797157764434, 0.0775127425789833, -0.04808920174837113, -0.09666529893875123, 0.04192746877670288, 0.04146742299199104, 0.14741994738578795, -0.25003074705600736, -0.0003979081171564758, -0.003890041774138808, 0.22908282279968262, 0.009584340639412403, -0.04788484573364258, 0.05487852841615677, 0.019165148213505744], [-0.05535014718770981, -0.002105801133438945, -0.06289590895175934, 0.07013637572526932, 0.044658590108156204, 0.07890430837869644, -0.015182435512542725, 0.09687664359807968, 0.09019196778535843, -0.14892524480819702, -0.034917399287223816, -0.08457375317811966, 0.049910593777894974, -0.12681980431079865, -0.1221415251493454, -0.03736933693289757, 0.03181532397866249, 0.09112212806940079, -0.005238196346908808], [0.08632722496986389, -0.05892137512564659, -0.10758492946624756, -0.12428868263959884, 0.21521350145339965, 0.017306071519851685, 0.10017732381820679, 0.04634436890482903, 0.08295943886041642, -0.04996829107403755, -0.06025852784514427, -0.027835238352417947, 0.07284734398126602, -0.01780830193310976, -0.1914600372314453, 0.12080219388008118, -0.12510791420936584, 0.2554221510887146, -0.16636312007904053], [-0.21486374139785766, 0.1528167486190796, -0.165692600607872, -0.026888329163193704, 0.11797347366809845, -0.0018944245937746018, 0.10796928107738495, 0.025967728719115256, -0.005177722778171301, 0.08718424439430236, -0.18368723392486572, 0.10998608320951461, 0.0028732902137562633, -0.02286495380103588, 0.15581108629703522, -0.17458541095256805, -0.03646560236811638, 0.1952018231153488, -0.026373926922678946], [0.016414305195212364, -0.09397989511489868, 0.1008295789361, -0.030927734449505806, -0.043974652886390686, -0.03168870136141777, 0.054112743586301804, -0.07508021593093872, -0.02158919721841812, 0.04423698037862778, -0.05876366049051285, 0.12103614956140518, -0.02429988607764244, 0.007291938178241253, -0.0702386349439621, 0.02008606307208538, -0.005086805205792189, -0.05287573114037514, 0.04850071668624878], [0.14326391518115997, -0.13481262624263762, -0.047127488255500796, -0.11677468866109848, 0.3283462166786194, 0.1689032346010208, 0.09057315438985825, -0.2863247811794281, -0.0020259690703824163, -0.14301409423351288, 0.016819981671869755, 0.16746959388256072, -0.14210329353809356, 0.12571478337049485, 0.013532381504774094, -0.14117711484432222, -0.11363076567649841, -0.01788184866309166, -0.20272383391857146], [0.09767242819070816, 0.14301517009735107, -0.022723872773349287, 0.12356035113334655, 0.2315597802400589, -0.022149956226348876, 0.20503831207752227, -0.1468834847211838, -0.06036878302693367, 0.13761565685272217, -0.062416599690914155, 0.14133870899677276, -0.04156110659241676, -0.18991625010967256, 0.007485112268477678, -0.014659906178712845, -0.10017058998346329, -0.10695429146289825, -0.17701707482337953], [-0.007964792661368847, 0.027616266161203384, -0.09586957842111588, 0.06424066424369812, 0.023780077695846558, -0.0005880832904949784, 0.07536934316158295, -0.15539629757404327, -0.15236103534698486, -0.0770186185836792, 0.050072863698005676, -0.0412268191576004, -0.12548181414604187, 0.009551187977194786, 0.004522465169429779, 0.03500555828213692, -0.01962859369814396, -0.036598846316337585, 0.04417090117931366], [-0.42878878116607666, 0.14020927250385284, -0.09997447431087494, 0.10375821143388748, -0.06943577975034713, 0.07904112040996551, -0.040943242609500885, -0.04449992999434471, -0.020570342242717744, -0.020508843287825585, 0.01329599916934967, 0.013621876202523708, 0.05447340607643127, -0.04862824752926827, 0.13497193455696105, 0.040387637168169024, 0.04108201563358307, 0.14688621163368226, -0.10637475252151489], [0.08231896460056305, -0.05724125429987907, -0.09120099246501923, 0.08673670589923858, 0.32793280482292175, -0.0005797731573693454, 0.08412006944417953, -0.2563923537731171, 0.03085757903754711, -0.006047848099842668, -0.08767575025558472, 0.05995459333062172, -0.04236192852258682, -0.13414059579372406, -0.16227279007434844, -0.11406341791152955, -0.008113705646246671, 0.16773044168949128, -0.30170096158981324], [0.337442421913147, 0.24249928891658784, 0.08833259344100952, 0.01007098462432623, 0.12600894570350646, 0.09679673612117767, 0.0937299370765686, -0.1653525561094284, -0.17927222847938537, 0.022444866225123407, 0.016118505969643593, -0.0504178985953331, -0.12026785910129548, 0.03997031152248383, 0.09807924926280975, -0.07366190999746322, -0.1834466427564621, -0.2050063878297806, -0.13552822172641754], [0.23611771762371064, 0.0456151932477951, 0.09017040580511093, 0.10337885320186616, 0.20036204755306244, 0.08212104141712188, 0.08683655560016632, -0.46434547305107116, -0.07955373078584671, -0.010609439015388489, 0.033435036242008206, -0.18737784028053284, 0.007362455874681473, 0.0991770714521408, -0.10689464509487152, -0.009365417622029781, 0.14449389576911925, -0.1982603371143341, -0.21675005853176116], [-0.02970266342163086, 0.026773210614919662, 0.027853872627019882, 0.09003518521785736, 0.09012174606323242, -0.029310712590813637, 0.010191908106207848, 0.002537710126489401, -0.1424606740474701, -0.015910321846604347, -0.10498958081007004, -0.01599392667412758, 0.05064307153224945, 0.004381287377327681, -0.05581486225128174, 0.028108224272727966, -0.04012022912502289, -0.07568097114562988, -0.10079870373010635], [-0.1291608363389969, -0.027633143961429595, -0.04444343000650406, -0.09426794201135635, 0.26669739484786986, 0.09621157199144363, -0.0218324176967144, -0.281409752368927, 0.0036702693440020086, -0.05498421117663384, 0.0018731971184024587, 0.07337754219770432, -0.0253036729991436, -0.02642802745103836, 0.10332998782396316, -0.004910625028423965, -0.10626237839460373, 0.12579708844423293, -0.22746641933918], [-0.009747250005602837, -0.13486795127391815, 0.018583521246910095, 0.08773144334554672, 0.05005175247788429, -0.000996373943053186, 0.0701361820101738, 0.07683012634515762, 0.021708613261580467, -0.00664153415709734, -0.13882030546665192, -0.04602619633078575, -0.10262730717658997, -0.09868676215410233, 0.14963680505752563, -0.03213619068264961, -0.009714114479720592, -0.06487266719341278, 0.09642422944307327], [-0.3967402458190918, 0.2474864035844803, -0.11721905916929246, 0.021883365139365195, 0.028794261440634728, -0.004452462680637837, 0.07385044693946838, 0.0618227481842041, 0.01938418410718441, 0.14277576506137848, 0.06258826106786727, 0.017969314381480216, -0.15904730856418609, 0.0009887078311294317, 0.11287601441144943, -0.08222023099660873, -0.0662674218416214, 0.06976954042911529, -0.054682495445013045], [0.09430210292339325, 0.0959300547838211, 0.05718512088060379, -0.034029945731163025, 0.04607420414686203, -0.040884193032979965, 0.005999960005283356, -0.14198841154575348, 0.11437103152275085, -0.07977623492479324, -0.010473841801285744, -0.06141931191086769, -0.03789963200688362, -0.13250607252120972, 0.006440194323658943, 0.015681663528084755, -0.12313208729028702, -0.08584022521972656, 0.051035646349191666], [0.0994279846549034, 0.29307464361190794, -0.2170486032962799, 0.06665246337652206, -0.11767761409282684, -0.03723798468708992, 0.1314632385969162, -0.06707875281572342, -0.050278127938508985, 0.1932967185974121, -0.1372542768716812, -0.022353752329945565, -0.0607725515961647, 0.08159147202968597, 0.17603894472122192, -0.1359582781791687, -0.07648099511861801, 0.072713902592659, -0.14676818549633025], [-0.020190657675266267, -0.26493615508079527, -0.05134623274207115, 0.012197430804371833, 0.21333122849464417, 0.12338344007730484, 0.14221655130386351, -0.2791606247425079, 0.021776047721505164, -0.00665004625916481, -0.021449319273233413, 0.03518236726522446, -0.028258974477648736, -0.07843904197216034, -0.1673727512359619, 0.017799046635627747, 0.13740368485450744, 0.10911122262477875, -0.21640852391719817], [-0.12395629584789276, 0.3010043799877167, 0.029281701892614365, -0.09915556013584137, -0.14593127071857454, 0.01843212153762579, 0.03523251414299011, 0.08013541102409363, -0.043021561950445174, 0.11034970730543137, 0.10588477551937103, 0.0774074912071228, 0.0734489843249321, 0.04591739624738693, 0.18474943339824676, -0.1641341269016266, -0.13872171938419342, -0.17736800909042358, -0.07050102949142456], [-0.456269246339798, 0.13751893639564514, -0.11060071140527725, -0.15992712676525117, 0.1763116419315338, 0.11254346817731857, -0.04995359852910042, -0.10168620496988297, -0.050447121262550354, -0.044637277722358704, 0.0741569995880127, 0.001720208628103137, 0.16464544832706451, 0.04753976687788963, 0.0003795662079937756, -0.19497354924678803, -0.027170885354280472, 0.07999188899993896, -0.13305233120918275], [-0.07683633267879486, 0.10763530433177948, -0.0473177008330822, 0.11628901809453965, 0.3560819625854492, -0.1074020653963089, 0.1594402551651001, -0.19224937856197358, 0.06091669052839279, 0.11724375337362289, 0.008280104584991932, 0.09760984778404236, -0.05124000087380409, -0.22894118428230287, 0.04866678044199944, -0.15580771267414092, -0.06658721268177033, -0.09462112784385682, -0.20044654309749604], [-0.3578611373901367, 0.15278132855892182, -0.0530356764793396, 0.10389606803655624, 0.02975725568830967, -0.09639640599489212, 0.018886710330843926, -0.16397550702095032, -0.021425809338688852, 0.024299783632159233, -0.02639019414782524, 0.1526615411043167, 0.09832730442285538, -0.06281264945864677, 0.16497061550617217, -0.01760224625468254, -0.06808411180973054, 0.13387629091739656, -0.024319154769182207], [0.3177941024303436, 0.18257238268852233, -0.062019729614257814, -0.1286051645874977, 0.1647530436515808, 0.06282893195748329, 0.13475532829761505, -0.3015352785587311, -0.048213716596364975, 0.13223540186882018, 0.04943451583385468, -0.2824257016181946, -0.014210501685738564, -0.004309046501293779, 0.01349660661071539, -0.13503917753696443, -0.07066961377859116, -0.03990018293261528, -0.10164138972759247], [0.19576179087162018, 0.17010962069034577, 0.08417822271585465, 0.032150160148739816, 0.18261254131793975, -0.0393782801926136, 0.14435196220874785, -0.3721523106098175, -0.10903167724609375, 0.07379262000322342, 0.16607088446617127, 0.056180309504270554, -0.01887209601700306, 0.11500074416399002, -0.11089283972978592, -0.12533156871795653, 0.04858669117093086, -0.12425529956817627, -0.2654822885990143], [0.004341429565101862, 0.06749936938285828, -0.01850235089659691, -0.060906000435352325, 0.04133911058306694, 0.01960122585296631, -0.019078215584158897, -0.0347665399312973, -0.146152064204216, -0.12033075839281082, 0.1274505853652954, 0.15564072132110596, -0.10073278844356537, 0.07672100514173508, -0.16201438009738922, 0.017130106687545776, -0.09680179506540298, -0.018776144832372665, -0.05911274999380112], [-0.39561704993247987, 0.13142474889755248, -0.19094686806201935, 0.025604040548205375, 0.22034575045108795, -0.03258203789591789, -0.022558866068720818, -0.05299619659781456, 0.066853366792202, 0.18597254753112794, 0.09657945930957794, -0.11081571877002716, -0.019638029858469963, -0.07782476395368576, -0.0303165752440691, 0.10341479629278183, -0.11747495085000992, 0.14016148447990417, 0.02688683718442917], [0.11785989850759507, -0.17340104579925536, -0.06942190229892731, 0.04000467211008072, 0.2719531714916229, -0.11104654520750046, 0.23362688422203065, -0.22925095856189728, -0.011248514894396067, -0.06064918041229248, 0.015894829481840133, 0.09008132219314575, -0.0411013662815094, 0.1134245440363884, -0.07826429903507233, -0.03870866224169731, 0.08537834584712982, -0.14676168859004973, -0.19716377854347228], [-0.04741779342293739, -0.03278075158596039, 0.03925376757979393, 0.04206344112753868, 0.11715558171272278, 0.0072981445118784904, -0.023531818762421608, -0.0418439656496048, 0.03814602643251419, -0.014422683976590633, 0.017423028126358986, -0.0997503399848938, -0.1348990947008133, 0.007766710128635168, -0.041573770344257355, -0.10255524516105652, -0.06350835412740707, 0.03592570871114731, 0.05161334201693535], [0.05478848293423653, 0.19636040329933166, -0.09268755614757537, 0.024456152319908143, -0.304055780172348, -0.047511880099773404, 0.05542314723134041, -0.07069365978240967, -0.08424353748559951, 0.1450069636106491, 0.06610173881053924, -0.19481759667396545, 0.09854436367750168, -0.03129654563963413, 0.0755522221326828, 0.017130148969590663, 0.07961622178554535, 0.21234702169895173, -0.07184642255306244], [0.06320001482963562, 0.260368150472641, -0.13037540018558502, -0.10573819428682327, -0.15416820645332335, 0.05356390550732613, 0.07234235107898712, -0.16624758541584014, 0.0933637335896492, 0.15196138024330139, 0.06426547914743423, -0.134344881772995, 0.035251759737730023, -0.06648569703102111, -0.0202517319470644, 0.06126187890768051, -0.10899294316768646, 0.05564742907881737, -0.20888622403144835], [-0.5112035393714904, -0.2597153544425964, -0.22655908465385438, -0.0035394628066569567, 0.15513103902339936, 0.06175820827484131, 0.07035533785820007, -0.05348845720291138, 0.006038992898538709, -0.024938690289855004, 0.21237355172634126, 0.03567065373063087, -0.13448971509933472, 0.12582576125860215, -0.112889102101326, 0.10478592067956924, 0.09838721305131912, 0.11618802845478057, -0.016539098508656026], [-0.26205137372016907, 0.18663075268268586, 0.034533407911658286, 0.09098369181156159, -0.2729372262954712, 0.02203935608267784, -0.03726826533675194, -0.1350565016269684, -0.09042396694421768, 0.08805682063102722, 0.0024050214793533086, -0.007180597214028239, 0.004788459837436676, 0.09570388346910477, -0.007827396411448717, 0.07084081918001175, -0.017125425674021245, 0.15455741584300994, 0.18040359914302825], [-0.008911230601370335, -0.011290459893643856, -0.05957474187016487, 0.009066253900527954, -0.013032505288720131, 0.023975472897291183, -0.0945158377289772, -0.024867573752999306, 0.009873496368527412, -0.1190086081624031, -0.004868978634476662, -0.00623822258785367, -0.09447752684354782, 0.018878789618611336, 0.11736053228378296, -0.14107359945774078, 0.10951928049325943, 0.007608762942254543, -0.10312443971633911], [-0.1413070559501648, -0.005872893147170544, 0.0008777260663919151, -0.09255830943584442, -0.008962517604231834, -0.08468155562877655, -0.0017352014547213912, -0.12252863496541977, 0.08676926791667938, -0.0776854157447815, 0.019320858642458916, -0.12052999436855316, -0.08152219653129578, 0.11623476445674896, -0.0374889075756073, -0.08497641980648041, -0.03641948848962784, -0.0790352150797844, 0.07011209428310394], [0.051186319440603256, -0.0024817390367388725, -0.11196346580982208, 0.08573249727487564, -0.06854388117790222, -0.0260494165122509, -0.08811720460653305, -0.15152539312839508, -0.030319729819893837, 0.09077569097280502, -0.1674698442220688, -0.05353155359625816, -0.11000718921422958, 0.005283338017761707, 0.08074042946100235, -0.05781234800815582, -0.07587576657533646, 0.061799440532922745, -0.1307464987039566]], "encoder.0.bias": [0.09231010675430298, -0.21017763316631316, -0.014293976128101349, -0.017496174760162832, 0.001891557825729251, -0.10853902101516724, -0.05140957981348038, -0.03228629119694233, 0.01943753771483898, 0.026988189667463303, -0.07260679453611374, -0.17297042310237884, 0.014111138135194778, -0.01817651093006134, 0.03910679817199707, 0.17581339180469513, -0.10143007636070252, -0.12566810399293898, -0.062230174988508226, 0.018912041932344435, -0.006341558089479804, -0.07621988654136658, -0.024276956915855408, 0.0013627828448079526, -0.009062707051634788, 0.09865280538797379, -0.09927423298358917, -0.1189722865819931, -0.06201410889625549, -0.09105419367551804, -0.037445224821567535, -0.12852696180343628, -0.06224668398499489, 0.012531830184161662, -0.05954710841178894, -0.009481659159064293, -0.025456568226218224, -0.017281831800937654, 0.05545083582401276, 0.028464847803115846, -0.026378627866506577, 0.04804147407412529, 0.03707165643572807, -0.04530774280428886, -0.02578863874077797, -0.19029732942581176, -0.042878571152687076, -0.02719583623111248, 0.08557326197624207, 0.006713823229074478, -0.05622622519731522, 0.04852735325694084, -0.12936663031578063, 0.03904598206281662, -0.0409412145614624, -0.022612696513533592, -0.07472683489322662, -0.07074616998434066, 0.02259036935865879, -0.061006563156843184, 0.04749108999967575, 0.09818652272224426, 0.09260658919811249, -0.1665458381175995], "encoder.3.weight": [[-0.08672713935375213, 0.002618439955404028, -0.08577932417392731, 0.087357996404171, 0.06227020546793938, -0.10851167291402816, 0.020327990874648094, -0.12962426096200944, 0.05187530964612961, -0.03450179845094681, -0.016909759491682053, 0.039638616144657135, 0.31922192573547364, 0.011982515454292297, 0.3891516745090485, -0.042585231363773346, 0.22197850942611694, -0.018159406259655952, 0.23164260089397432, -0.025441407039761544, 0.12425306439399719, 0.0007241457933560014, -0.07467290014028549, 0.12719259709119796, 0.5412580370903015, 0.09996314942836762, -0.03659786283969879, -0.0048254309222102165, 0.1872834622859955, 0.022520024329423904, -0.12018609195947647, 0.1805942177772522, -0.06791564077138901, -0.02759213447570801, -0.12555138021707535, 0.05958474054932594, 0.27779353260993955, -0.03680592551827431, -0.15929383039474487, -0.006955345685128123, 0.0050787716172635555, 0.1133176028728485, 0.015034015290439129, 0.17690788507461547, 0.05152953416109085, -0.08366717398166656, 0.02596106380224228, -0.049729125946760176, 0.34455907344818115, 0.08223080337047577, 0.3033379077911377, -0.061522549390792845, 0.010951251909136771, -0.0029378593899309635, 0.32751373052597044, 0.026108677685260772, -0.022155549377202988, -0.0010468421154655517, -0.041696824878454206, 0.2511355757713318, 0.2670080900192261, 0.047479622066020966, -0.013924646191298962, -0.02924804762005806], [0.059709548205137256, 0.021882714331150056, -0.04445875808596611, -0.007858976442366838, 0.013799965381622314, -0.08467206954956055, 0.057617783546447754, -0.1429814100265503, -0.03842641338706017, 0.02807171270251274, 0.033657755702733994, 0.04945416077971458, -0.03564246818423271, -0.021581117063760757, -0.17118774056434632, 0.00797000341117382, -0.11239099949598312, -0.04685126915574074, -0.035853411257267, -0.052410545945167544, -0.3080561637878418, -0.015782762318849564, -0.012339776381850243, 0.05466658994555473, -0.0385145403444767, -0.11896616071462632, 0.03728307783603668, 0.07726045697927475, -0.3234047830104828, -0.026586094871163368, -0.07525507807731628, -0.0949441060423851, -0.0719127282500267, 0.07263751178979874, 0.1164246842265129, -0.034378841519355774, -0.09952179342508316, 0.06817666292190552, 0.03464934006333351, -0.03130470961332321, 0.04082628712058067, 0.015779655799269675, -0.007350349798798561, -0.1043151468038559, -0.07114696502685547, -0.14746227860450745, 0.03943022936582565, -0.10733414590358734, -0.1237625390291214, 0.07493440508842468, -0.15987322926521302, -0.03273382335901261, -0.007011569663882255, 0.038151293992996216, -0.09350149780511856, 0.18267062902450562, -0.021809184923768044, -0.29547358155250547, -0.17140216529369354, 0.026291510835289956, -0.21836608052253723, 0.023466510698199272, 0.08208296447992325, 0.0011684090131893754], [-0.04582027196884155, -0.2115747421979904, 0.047020431607961655, -0.21126485168933867, 0.0071666003204882145, 0.11049723625183105, 0.011872878298163414, 0.005804759124293924, -0.1804499328136444, -0.051048643887043, -0.020182941108942032, -0.1684965193271637, -0.3011057138442993, 0.08751150965690613, -0.3239795982837677, 0.03020709566771984, -0.08778160810470581, -0.16492085456848143, 0.07396287024021149, -0.0785173937678337, -0.21706493198871613, 0.06042512506246567, 0.056667666882276535, -0.1762630820274353, -0.15283787548542022, -0.00663475584005937, 0.0266298595815897, -0.05904074013233185, -0.05628255680203438, -0.05743219330906868, 0.056004836410284045, -0.33431473970413206, 0.03133578971028328, -0.06859324276447296, -0.24527921676635742, -0.061446528881788254, -0.08552227467298508, 0.01879277601838112, -0.1002791777253151, 0.04833618402481079, -0.002778774593025446, -0.12087039053440093, 0.003916841000318527, -0.4059019148349762, 0.0038509636651724577, -0.14858982861042022, 0.04353765472769737, -0.2169390857219696, -0.17222151160240173, -0.2687386333942413, -0.295030003786087, 0.12342658936977387, -0.09606204479932785, 0.015892108902335167, -0.1398153007030487, -0.04004929289221763, -0.021187324076890945, 0.11108428984880447, -0.02374189831316471, -0.1384494870901108, 0.03728814274072647, -0.010448801331222057, -0.04491415247321129, 0.04978363215923309], [0.13350057899951934, -0.02075490839779377, -0.07860720157623291, 0.30624754428863527, 0.04282810911536217, -0.06963168010115624, -0.044815145432949066, -0.011110399011522531, -0.016183573752641678, -0.011657452210783958, 0.06037810817360878, -0.0019661767524667083, 0.22403359413146973, 0.036885444074869156, 0.27936322093009947, 0.010651851072907448, 0.08925125449895858, -0.06031374707818031, 0.01446893010288477, -0.004375374445226043, 0.40712702870368955, -0.039498575031757355, 0.038146644830703735, 0.21337102353572845, 0.21937291622161864, 0.13588521778583526, 0.01854020729660988, -0.02550027333199978, 0.2003004550933838, -0.020018035545945168, 0.040930334478616714, 0.12442755252122879, -0.05807182192802429, 0.024395622685551642, 0.0018327117897570134, 0.0536569207906723, 0.2839568376541138, -0.020661105401813984, -0.06546256542205811, -0.0203775804489851, 0.05352233722805977, 0.04264882579445839, 0.027866126969456673, 0.15466674268245698, 0.07109565287828445, 0.05127096101641655, 0.03639392219483852, 0.029090112447738646, 0.2294677734375, 0.018345627561211587, 0.2471473753452301, -0.05365500599145889, 0.046749939769506456, 0.0913563221693039, 0.0032257621292956173, -0.09556384682655335, -0.020100515335798264, 0.05752492845058441, 0.042528990656137466, 0.39070990681648254, 0.28632362484931945, -0.02259441837668419, -0.030471891164779663, -0.07224760949611664], [0.05292983055114746, -0.2125237375497818, -0.003103396389633417, 0.21956380903720857, -0.045248743146657944, -0.05949757322669029, 0.020666519179940224, -0.09745186418294907, -0.30301507711410525, 0.014873361214995384, 0.0322829931974411, -0.20222249031066894, 0.16160790026187896, 0.0355486124753952, 0.28042392134666444, 0.05370483547449112, 0.03809763342142105, -0.17690208852291106, -0.15924351215362548, -0.03172877989709377, -0.05805310010910034, 0.021149763837456703, -0.010542711243033409, 0.10258432477712631, 0.30585238337516785, -0.1388499140739441, -0.05849558860063553, 0.07654819637537003, -0.006118624121882021, 0.02542899176478386, -0.06882973909378051, -0.16652903258800505, 0.01371390838176012, -0.07894567400217056, -0.19157858788967133, 0.0005042076227255166, 0.1142490714788437, -0.14684028625488282, -0.16988843381404878, -0.06723931729793549, -0.006505623459815979, -0.11681164801120758, 0.016712693497538567, -0.07978566586971284, -0.004345214460045099, -0.37800411581993104, 0.054616207629442214, -0.09372876137495041, 0.008167437836527824, -0.11628883481025695, 0.036886964738368985, -0.25732200741767886, -0.15953468382358552, -0.0018328040605410933, 0.007647709455341101, -0.10793912559747695, 0.05597004294395447, -0.10492472350597382, -0.2768046498298645, 0.28284236788749695, 0.10676970034837723, 0.06016336753964424, -0.0551513209939003, 0.08767111599445343], [0.06988813877105712, -0.17890431582927704, -0.0783294290304184, 0.020812809094786645, -0.04164440184831619, -0.018058908358216285, -0.015412521548569202, -0.10157420039176941, -0.08837897926568986, -0.021736960858106613, 0.040789324790239334, 0.05155319049954414, -0.0796347752213478, 0.05863926559686661, -0.09534782022237778, -0.02514103427529335, -0.24216388761997223, 0.029368765652179718, -0.19221265017986297, 0.03410765565931797, -0.20937493145465852, 0.03374015539884567, -0.009324857965111732, -0.03583497777581215, -0.3297056078910828, -0.09596161693334579, 0.10884133726358414, 0.07908984273672104, -0.26181429624557495, 0.0007133156177587807, -0.034669119864702225, -0.13352071940898896, 0.011022740975022316, 0.056101064383983615, 0.08637429773807526, 0.025720879435539246, -0.26913588047027587, -0.13000931739807128, 0.017051457054913045, -0.02148088961839676, -0.07072342932224274, -0.14491678178310394, 0.022854402661323547, -0.14548895955085756, 0.051774900406599045, -0.07502803802490235, -0.019362828321754934, 0.04334054440259934, -0.19604208171367646, -0.044583288580179216, -0.1908560574054718, -0.06916928738355636, -0.020689644291996954, 0.07206837087869644, -0.2750779211521149, 0.1419472873210907, 0.010669690556824207, -0.1579440414905548, -0.23122381567955017, -0.027892357856035232, -0.2626074492931366, -0.020977715030312538, -0.02847488783299923, 0.030467960983514786], [0.051370587199926376, -0.28644807934761046, -0.007441169116646051, 0.09911532551050187, 0.07213203608989716, 0.14451488554477693, 0.06046893820166588, 0.05668139904737472, -0.26177396774291994, -0.002882069442421198, 0.03990500420331955, -0.18336748480796813, -0.1850970983505249, 0.048236459493637085, -0.08937514871358872, -0.0200144462287426, 0.012009481340646744, -0.2812836468219757, 0.06000155732035637, 0.036941293999552725, -0.1054332658648491, 0.0935426875948906, -0.04045964777469635, 0.03377900719642639, -0.1716605544090271, -0.04667709618806839, -0.028232906013727188, -0.09319300949573517, -0.037689055502414706, 0.011975032277405262, 0.14056369364261628, -0.2536078065633774, 0.033126551657915115, -0.0408334344625473, -0.24158360362052916, -0.024820219725370407, -0.055676168948411944, -0.002387836016714573, -0.12309695780277252, -0.07203920930624008, 0.0066781132481992245, -0.06135340258479118, 0.011961577460169792, -0.36149664521217345, 0.09071795642375946, -0.1994573801755905, 0.02015212271362543, -0.47093128561973574, -0.11665351390838623, -0.45295973420143126, -0.20163350999355317, -0.08295340687036515, -0.13273146450519563, 0.029771655797958374, -0.13312072157859803, -0.09561426937580109, -0.04727468639612198, 0.07139401435852051, -0.05633480399847031, 0.007381900306791067, -0.004628911893814802, 0.03767060115933418, 0.049802783876657486, -0.08182843774557114], [0.2097180426120758, -0.006556824932340532, 0.012568572536110878, 0.017818092554807662, -0.02889825403690338, 0.10430887043476104, -0.05357931926846504, 0.071701018512249, 0.03472366146743298, 0.006367406342178583, -0.01562665030360222, 0.08655873239040375, 0.027015228942036628, 0.07093619555234909, 0.08233914673328399, -0.04390643164515495, 0.24646955132484435, -0.08240224570035934, 0.35022667050361633, 0.05128329545259476, 0.03797305524349213, -0.02022542431950569, 0.08174706250429153, 0.10545463562011718, 0.08781005591154098, -0.0338688176125288, -0.001282811164855957, -0.026006927713751793, 0.046519242227077484, -0.018695300444960594, 0.13039737641811372, 0.04000930935144424, 0.04564383625984192, 0.05002372935414314, 0.020476526394486428, -0.056831564754247665, 0.059149064123630524, 0.14642204940319062, -0.01581807602196932, 0.11038587391376495, 0.028252724558115005, 0.20494257509708405, -0.07910299301147461, 0.0019078927347436548, 0.0038832873106002808, 0.12083914279937744, 0.18487123250961304, -0.15143816471099852, 0.09759600907564163, -0.00842722663655877, 0.08486709147691726, 0.08846833854913712, 0.16961055397987365, -0.045921292155981064, 0.12083035558462143, 0.00791299759875983, -0.02844156324863434, 0.20082921981811525, 0.09359684139490128, 0.11712515503168106, 0.11357881277799606, -0.03516191989183426, 0.05151834711432457, -0.03497382625937462], [-0.005231295502744615, 0.13484894931316377, -0.053306855261325836, 0.09265820235013962, -0.0010554641485214233, -0.013357529044151306, -0.008668830618262291, 0.05576375499367714, 0.04980736151337624, -0.0016107767587527633, 0.02589070424437523, 0.065199975669384, 0.17613036334514617, 0.03878794237971306, 0.09671538323163986, -0.06252343207597733, 0.04421365410089493, 0.17098008394241332, -0.0982043445110321, 0.11763641238212585, 0.20455098450183867, -0.01716921105980873, -0.04641605541110039, 0.09813964813947677, 0.03888992592692375, 0.0006664755754172802, -0.05125725641846657, 0.05375327542424202, -0.034394672885537145, -0.007034578826278448, 0.03282428048551082, 0.22262210845947267, -0.009013894014060497, -0.048693080246448514, 0.17165839672088623, -0.03738712891936302, 0.18197173178195952, 0.042095727473497394, 0.08459644764661789, -0.18011489510536194, 0.047280970960855484, -0.06452149078249932, -0.07022613286972046, 0.2550311505794525, -0.006515395827591419, 0.17530781626701356, -0.11412561535835267, 0.12941701859235763, 0.006490768399089575, 0.03505246937274933, 0.1544189304113388, -0.11910512894392014, -0.05863446220755577, -0.009738147258758545, -0.020629285648465157, -0.09247678965330124, -0.04446113109588623, -0.015079888980835676, -0.00030841887928545475, -0.026643603667616846, 0.009029568824917077, -0.07618796080350876, 0.01619875431060791, 0.04062128812074661], [0.17596151530742646, -0.13064026236534118, -0.03508428484201431, 0.08883771151304246, 0.0490495041012764, -0.03413711152970791, 0.05124489963054657, -0.06892676949501038, -0.16542683243751527, 0.007394668646156788, 0.026862626895308495, -0.14192272424697877, -0.11556742340326309, 0.03904620185494423, 0.022706375271081925, 0.040291909128427505, -0.06140604391694069, -0.2322349488735199, 0.04069250673055649, 0.045229509472846985, -0.002620570652652532, 0.06732234358787537, -0.04499845206737518, 0.12377222329378128, -0.0901600956916809, -0.06274722963571548, 0.02062731608748436, -0.01982085034251213, -0.055798393487930295, 0.07495159655809402, -0.029793857038021086, -0.18843830227851868, -0.00026194751262664795, 0.015620258823037147, -0.15476211607456208, 0.027533460408449173, -0.08106673359870911, 0.021046651899814604, -0.04450235813856125, -0.0038564989517908543, -0.009866097941994667, 0.026343194767832756, -0.06067012622952461, -0.1704263210296631, -0.023059019818902016, -0.21253302395343782, 0.08253607749938965, -0.19071256518363952, -0.07556826770305633, -0.12209279835224152, -0.1340540051460266, 0.06278988867998123, -0.09252985268831253, 0.008628115057945251, -0.15891644656658171, 0.07327047735452652, 0.0632186308503151, 0.014269031025469303, -0.040668589621782304, 0.09025615602731704, -0.0453115850687027, 0.0227871835231781, -0.013968050479888916, 0.014129522256553173], [-0.04837906360626221, -0.09629512578248978, -0.010888511314988136, 0.08397302627563477, 0.04617290198802948, 0.03781767934560776, -0.03445019945502281, 0.07318553328514099, 0.021159137599170208, -0.01263092178851366, -0.05852598324418068, -0.022575356252491473, 0.1842460036277771, -0.02758110500872135, 0.2734802901744843, -0.02301991730928421, 0.04001428559422493, 0.05707755982875824, -0.07226391136646271, -0.07999039590358734, 0.2470826029777527, -0.08971169590950012, -0.018161961808800697, -0.04011767879128456, 0.19476532936096191, -0.049478323012590406, -0.03461701422929764, -0.004863318987190723, 0.07616094201803207, 0.0156308114528656, 0.025456751137971877, 0.16232797503471375, -0.027604639530181885, -0.20882731378078462, -0.14009838700294494, -0.02245916798710823, 0.16982627511024476, -0.18123126029968262, -0.07875636070966721, -0.2343096286058426, -0.0031730742193758488, -0.0826379343867302, 0.06961767375469208, 0.2059404194355011, -0.030834008008241653, 0.12266318798065186, -0.13020639419555663, 0.04809987470507622, 0.1720655381679535, -0.19452524483203887, 0.1401604801416397, -0.0629626452922821, -0.15839788615703582, -0.02498793601989746, 0.07606574445962906, -0.2082401305437088, -0.02645805850625038, 0.1883646070957184, 0.05643559694290161, 0.08977072387933731, 0.22184040248394013, -0.005569159053266048, 0.018650462850928307, 0.011050698347389698], [0.07013203948736191, 0.07876445055007934, 0.051994748413562775, 0.06449649780988694, 0.03770056739449501, -0.1810605138540268, -0.01816130056977272, -0.14348988533020018, 0.03873351663351059, 0.023224860429763794, 0.031161794438958168, 0.21341898739337922, 0.3808249354362488, -0.03891795873641968, 0.44704562425613403, 0.07472139596939087, 0.21736947298049927, 0.05090056732296944, 0.020434999465942384, 0.02153875082731247, 0.1563725709915161, -0.03264101967215538, -0.010113751515746117, 0.21330402791500092, 0.3256095826625824, -0.07790849804878235, -0.01281577069312334, 0.0578441359102726, 0.09328577965497971, 0.020993098616600037, -0.04420414492487908, 0.41959123611450194, -0.08650262653827667, -0.02165318988263607, 0.10319993942975998, 0.06091783195734024, 0.188082492351532, 0.03709508627653122, -0.07321124821901322, -0.15344143509864808, 0.08482508361339569, 0.14846802949905397, 0.04311450198292732, 0.3707468271255493, -0.05565502122044563, -0.014090308919548988, -0.00288375613745302, 0.11661430299282075, 0.41222267746925356, 0.21943952441215514, 0.23611097633838654, -0.17296140491962433, -0.0593003049492836, -0.044771380722522736, 0.3921722054481506, 0.009253570251166821, 0.010721015743911266, -0.1166791409254074, -0.14547926783561707, 0.2646739721298218, 0.08983995318412781, -0.0634939968585968, 0.0334482342004776, 0.046135157346725464], [0.22531687915325166, -0.14961033463478088, 0.005603992845863104, 0.309674346446991, -0.07813088595867157, 0.14610826075077057, 0.03512025997042656, -0.019163396023213864, -0.16198362708091735, -0.004285234026610851, 0.07765182852745056, 0.0019186471356078983, 0.14185322523117067, -0.0035828023683279753, 0.3656057298183441, -0.01739421859383583, 0.27324011325836184, -0.12514379918575286, 0.2543013632297516, 0.20534055531024933, 0.036042171716690066, 0.016229677945375443, 0.03738909959793091, 0.3016737163066864, 0.23700267672538758, -0.2302063912153244, 0.05550902336835861, 0.02307703159749508, -0.1301817327737808, -0.019809257239103317, 0.30732948780059816, 0.0748149186372757, 0.03318806365132332, -0.0023351866286247967, -0.0534179300069809, 0.0033757954370230436, 0.22411768436431884, 0.12594611793756486, -0.019450265914201736, 0.08358423113822937, -0.09492986649274826, 0.13503374755382538, 0.04602707549929619, 0.04333544299006462, 0.00508726853877306, -0.1011152908205986, 0.28925021886825564, -0.3451362431049347, 0.2523893117904663, -0.10489697605371476, -0.009450760949403048, -0.02720354273915291, -0.0756519764661789, 0.06342093646526337, 0.21285396218299865, -0.05764495506882668, -0.007473352365195751, 0.12422138154506683, -0.04697982743382454, 0.30124788284301757, 0.08035853654146194, 0.10423743724822998, -0.04178128391504288, -0.021311704069375992], [-0.0556255966424942, 0.05809415876865387, -0.059006527066230774, -0.34751870632171633, -0.009343614801764488, -0.031929857656359674, 0.030485909432172775, 0.11483249515295028, 0.059524234384298325, 0.009527906775474548, -0.009892511181533337, 0.19086073338985443, -0.23444001972675324, -0.05545711889863014, -0.40245855450630186, 0.04868217185139656, -0.2555904805660248, 0.11417615711688996, -0.13236680924892424, -0.06676043346524238, -0.33836506605148314, -0.04133211076259613, 0.06562425196170807, -0.1724315255880356, -0.29581443667411805, -0.032079274952411654, 0.07652689516544342, -0.08181122690439224, -0.10011029094457627, 0.06425406038761139, 0.01427472084760666, -0.10023009330034256, 0.010384708642959595, 0.10874554067850113, 0.12943277955055238, 0.01761358417570591, -0.18919833600521088, 0.034111769124865535, 0.12718191742897034, 0.07336415201425553, -0.008762657642364502, -0.09811322987079621, 0.02765856869518757, -0.09943923950195313, -0.04966048151254654, 0.03461594134569168, -0.054620984196662906, 0.03850386813282967, -0.28355213403701784, 0.14044686257839203, -0.2639338254928589, 0.07819611132144928, 0.11388228684663773, 0.008409162983298302, -0.2430330842733383, 0.20211420059204102, -0.0056768180802464485, -0.08178573548793792, -0.08918433785438537, -0.23093754649162293, -0.18860481083393096, -0.03161994740366936, -0.021665040403604507, -0.045802026987075806], [-0.1596037358045578, -0.124844291806221, -0.03921663016080856, -0.16030966341495514, 0.0011780380737036467, 0.061972258239984514, -0.04048918932676315, 0.13476476073265076, 0.02478507123887539, -0.005039510317146778, -0.08620402216911316, -0.15606031119823455, -0.19467724561691285, 0.09308856725692749, -0.22913362681865693, 0.09361131489276886, -0.2584710896015167, -0.055429122596979144, -0.11772369742393493, -0.21074070930480956, 0.16672625839710237, -0.041080623865127563, -0.05037746578454971, -0.20677318572998046, -0.19001559317111968, 0.07830287963151931, 0.03523898869752884, 0.012015322223305702, 0.24949355721473693, -0.00254860520362854, -0.14789429903030396, -0.1304631784558296, -0.04841285198926926, -0.18379582464694977, -0.11486503332853318, 0.012935614213347435, -0.08444487750530243, -0.18909660279750823, -0.01607307530939579, -0.0556221030652523, -0.0016381830209866166, -0.2419823795557022, -0.010837618261575699, -0.06453773230314255, -0.012113112024962902, 0.1266625255346298, -0.13162711560726165, 0.14235355257987975, -0.23859365582466124, -0.25718461275100707, -0.07315637618303299, 0.03279105760157108, 0.09901487231254577, -0.031549133360385895, -0.2570950150489807, -0.12975090891122817, 0.02048393152654171, 0.14471185803413392, 0.22313895523548127, -0.18556131720542907, 0.10912384539842605, 0.0012406856985762715, 0.05758361145853996, 0.0528908371925354], [0.07515096813440322, -0.14808624982833862, -0.031149938702583313, 0.1852188766002655, -0.058431029319763184, -0.015676972270011903, 0.013823309913277626, -0.18425178825855254, 0.0025793683947995306, 0.013992262072861195, -0.03810133412480354, -0.05912731289863586, 0.24099431335926055, 0.049722734838724136, 0.4276151776313782, 0.001896335044875741, 0.31522697806358335, -0.17937552630901338, 0.17718976140022277, 0.04782811179757118, 0.2108629435300827, -0.027750417590141296, 0.07020220160484314, 0.1356218636035919, 0.3594340145587921, -0.014449905417859555, -0.03873876482248306, -0.02169683948159218, 0.11119048893451691, -0.02832196280360222, 0.10863829851150512, 0.23725221753120423, -0.0457768440246582, -0.07497697621583939, -0.16797547936439514, 0.025165865197777748, 0.29602610468864443, 0.13846705257892608, -0.08318925350904464, -0.006044830195605755, -0.05386108160018921, 0.21716763079166412, -0.005946686491370201, 0.17970481514930725, 0.04500142112374306, -0.09133458882570267, 0.16238310039043427, -0.10245857238769532, 0.3783968210220337, -0.07043437212705612, 0.2793323814868927, -0.026537209376692773, -0.061910074949264524, 0.03902541473507881, 0.3201663315296173, -0.06256156265735627, 0.008272141218185425, 0.16649623215198517, 0.003489996469579637, 0.36484370827674867, 0.20057716071605683, -0.022330615669488907, -0.09280036389827728, 0.034791044890880585], [-0.20856402516365052, 0.05177005529403687, -0.023159723728895187, -0.1735491096973419, 0.03756715729832649, 0.13237392157316208, 0.051237333565950394, 0.16620026528835297, 0.09154137670993805, -0.03772030025720596, -0.031443335115909576, 0.0046494780632201586, -0.1555713802576065, -0.0030247836839407682, -0.33510024547576905, 0.061586253345012665, 0.019486312568187714, 0.03214655816555023, -0.0043038154486566785, -0.06323957219719886, -0.01391291692852974, 0.0021705180406570435, -0.03374151885509491, -0.30625595450401305, -0.03179575391113758, 0.27194947600364683, 0.016896655783057213, -0.04343629628419876, 0.16618087887763977, -0.04182450473308563, -0.1111285075545311, -0.17050589323043824, 0.01146633643656969, -0.12768481075763702, -0.0852983370423317, 0.017929255962371826, -0.11408482193946838, -0.216881662607193, 0.12926618456840516, 0.22379442751407624, -0.09130154550075531, -0.009011242911219597, -0.013190925121307373, -0.08573238253593445, 0.07199022173881531, 0.03046153150498867, -0.15141696631908416, 0.23150702118873595, 0.018028576485812665, -0.056210539489984515, 0.006902258051559329, 0.1565210610628128, 0.008440237771719695, 0.002904921770095825, -0.024779536202549933, -0.05359983295202255, -0.07050195336341858, 0.09531756788492203, 0.1997793585062027, -0.30815304517745973, -0.02785496711730957, 0.09571454674005508, -0.022783759981393814, -0.029944609850645065], [-0.1547711819410324, -0.2023995876312256, 0.01097848080098629, 0.17035631835460663, 0.005696043372154236, -0.0493288904428482, 0.008985569700598717, -0.17796777784824372, -0.12350880205631257, -0.05129852890968323, 0.06369294971227646, -0.18878380656242372, 0.1714630275964737, 0.016895413398742676, 0.43917468190193176, -0.0169831532984972, -0.09200361967086793, -0.006717554247006774, -0.22098283469676971, -0.02280939258635044, 0.11298249512910843, 0.03984280303120613, 0.05130302533507347, -0.04593560174107551, 0.31594590544700624, -0.07634430825710296, 0.007844728417694569, 0.06490889191627502, 0.1399000972509384, 0.028900008648633957, -0.04176633432507515, 0.028749119490385056, 0.03185277059674263, -0.15342169404029846, -0.16500721871852875, 0.01143607497215271, 0.135259410738945, -0.22972465455532073, -0.14726947546005248, -0.1683126837015152, 0.0674397274851799, -0.18299138844013213, 0.007991832681000233, 0.04138080552220345, -0.03969340771436691, -0.18591624796390532, -0.2563089787960052, 0.06655030772089958, 0.05746858790516853, -0.15873137414455413, -0.006262182467617094, -0.16587469279766082, -0.19537751674652098, -0.02045520208775997, 0.12802972942590712, -0.1982932984828949, 0.016747329384088516, -0.03206627182662487, -0.11130556762218476, 0.18527210950851442, 0.16337616741657257, -0.06076350435614586, -0.019122246652841568, -0.059266138821840286], [-0.04394596144556999, 0.02608683593571186, -0.031367719173431396, -0.2281637817621231, -0.00419732928276062, 0.10541872084140777, -0.09358389675617218, 0.06288309022784233, -0.0003738157916814089, -0.075044184923172, -0.035920631140470505, -0.17574155032634736, -0.18336092829704284, -0.0496009886264801, -0.10121371001005172, -0.0655849426984787, 0.017314627580344678, -0.14152109026908874, 0.17633204460144042, -0.1783801555633545, -0.11258294880390167, -0.05492405220866203, -0.037567369639873505, -0.2562788724899292, -0.014597447030246258, 0.32208877205848696, -0.0550110787153244, 0.043910495936870575, 0.1434469372034073, 0.018115177750587463, -0.1833752065896988, -0.2854353427886963, 0.05512838065624237, -0.009061988443136215, -0.18217205107212067, -0.029833873733878136, -0.0391977533698082, -0.10800611674785614, -0.03608865551650524, 0.23710967898368834, 0.04010419175028801, 0.004082045762334019, 0.0130150793120265, -0.168471097946167, -0.002304741647094488, -0.1188042014837265, 0.01683486541733146, -0.06431951448321342, 0.11024560034275055, -0.05603370890021324, -0.14699496626853942, 0.09017049670219421, 0.09380720853805542, 0.07807675749063492, 0.10769856125116348, -0.00985288405790925, -0.028724249452352524, -0.00791712908539921, 0.11802406013011932, -0.05323369428515434, 0.06449267938733101, -0.0619824044406414, -0.009696528315544128, 0.004088887479156256], [-0.15570966601371766, 0.01609559077769518, -0.024987906217575073, -0.1741387963294983, -0.0033762543462216854, -0.03469332978129387, -0.015927636995911598, -0.07773296982049942, -0.01444543655961752, -0.042307645082473755, 0.05097029358148575, -0.042949332296848296, -0.037310711294412616, -0.07435479015111923, -0.21367326080799104, 0.03435089439153671, -0.19484605491161347, -0.04618617370724678, -0.20446156859397888, -0.11640601307153702, -0.12219893932342529, 0.09949321299791336, -0.02511240914463997, -0.2920159101486206, -0.003885463811457157, 0.14243189096450806, -0.05703529715538025, -0.008401012048125267, -0.03844388388097286, 0.060157813131809235, -0.16545886993408204, -0.2766388118267059, 0.02591009810566902, 0.03817892260849476, -0.06077183037996292, 0.004020812921226025, -0.08260436654090882, -0.1752609759569168, -0.10749805569648743, 0.017318420577794313, -0.021533852443099022, -0.12353667914867401, 0.08176475763320923, -0.23006611466407775, -0.0025719194673001766, -0.11045403778553009, -0.17489771842956542, 0.08723348528146743, -0.11704576313495636, -0.03927241489291191, -0.04542281031608582, -0.07703269720077514, 0.07002311050891877, 0.002127009676769376, -0.12085278183221818, -0.07222948074340821, 0.03272887319326401, -0.22223578095436097, -0.1319582134485245, -0.14145664870738983, -0.06346092149615287, -0.012240528129041195, -0.06516845524311066, -0.05942929536104202], [0.07532180398702622, -0.3575946033000946, -0.02295427955687046, 0.138538858294487, -0.017473047599196434, -0.10995269268751144, -0.0299709290266037, -0.17157105803489686, -0.23592524826526642, -0.030122429132461548, 0.05489003658294678, -0.33765398859977724, -0.054121263325214386, 0.06074606627225876, 0.15334360301494598, 0.02953461930155754, 0.07777693271636962, -0.3818490505218506, 0.08095988631248474, -0.1309595912694931, -0.03012043982744217, 0.07055912166833878, -0.012186151929199696, 0.06497959941625595, 0.10082735568284988, -0.08600939065217972, 0.07020623236894608, 0.04345840588212013, -0.07053890824317932, -0.016804784536361694, -0.010350943449884653, -0.19166938960552216, 0.03351770341396332, -0.04122340977191925, -0.24814774990081787, 0.07810378074645996, 0.04527597278356552, -0.07551819682121277, -0.14318016469478606, -0.019640110433101654, -0.0009828269248828292, 0.012143664620816707, 0.010039640590548515, -0.23841783106327058, 0.018056591972708702, -0.3074262499809265, 0.03610739856958389, -0.4798256278038025, 0.02615504488348961, -0.27558125257492067, -0.13579391241073607, -0.06270779967308045, -0.14425344169139862, -0.050533898174762726, 0.037684348225593564, -0.07862688452005387, 0.016465047374367714, -0.004821101645939052, -0.15003513991832734, 0.2141617476940155, 0.02547374665737152, 0.03455314785242081, -0.04068180173635483, 0.044361479580402374], [0.07159292548894883, 0.13149660527706147, -0.08475779742002487, -0.007043595798313618, 0.06708182394504547, 0.03586524054408073, 0.042316511273384094, -0.013947069644927979, 0.10530685782432556, 0.014200404286384583, 0.04605981707572937, 0.1623256415128708, 0.2718014895915985, -0.058826398104429245, 0.19308873116970063, 0.004671916831284761, 0.14292914271354676, 0.05415402352809906, 0.13816662430763244, 0.05718584805727005, 0.07162433564662933, -0.013116657733917236, -0.013730737380683422, 0.118001788854599, 0.1595141738653183, -0.09971492141485214, -0.0074644535779953, -0.06995095312595367, -0.020634342357516287, -0.017512405291199684, 0.16797897219657898, 0.2849162995815277, -0.014087256975471973, 0.0901573896408081, 0.12567879855632783, -0.010620164684951305, 0.15933397710323333, 0.18583550155162812, 0.05109766125679016, -0.015825588535517455, -0.004441010765731335, 0.09208628237247467, -0.07189825922250748, 0.322752046585083, -0.04455804079771042, 0.1873641312122345, 0.1701422154903412, 0.021220322512090207, 0.13238363862037658, 0.16767377257347107, 0.09407395869493484, 0.07640098035335541, 0.03878245875239372, 0.025211939588189125, 0.18186430633068085, 0.04417610615491867, 0.005508893635123968, 0.15745264887809754, 0.05934502482414246, 0.049063262343406674, 0.06447797268629074, -0.0585833340883255, -0.05865173414349556, 0.057186443358659744], [-0.24669888913631438, 0.00773796159774065, -0.002686765743419528, -0.04267687499523163, -0.025691548362374306, -0.08576498776674271, 0.017893105745315552, 0.041680813580751416, 0.06849108934402466, -0.04402824491262436, 0.016031112521886826, -0.12630265951156616, -0.01537131629884243, -0.06631207466125488, 0.04182516559958458, -0.03895533084869385, -0.16843718886375428, 0.14986628890037537, -0.23175182342529296, -0.14925100207328795, 0.32902848720550537, 0.0827777236700058, 0.01029636524617672, -0.16690279841423034, 0.10310636013746262, 0.17219108641147612, 0.010973227210342884, 0.020910510793328285, 0.2958498179912567, -0.06099595129489899, -0.11627965122461319, 0.02030986826866865, 0.01721297577023506, -0.09968224316835403, -0.05578051283955574, 0.04535488039255142, 0.04339050799608231, -0.21499093174934386, -0.013335862755775451, -0.19283993244171144, -0.03648911044001579, -0.17021607756614685, 0.0170664694160223, 0.08003525137901306, 0.028479451313614845, 0.08494933545589448, -0.22766683697700502, 0.1670391708612442, -0.05153501182794571, -0.17022479474544525, 0.04209127128124237, -0.11078952103853226, -0.08809312283992768, -0.0256264116615057, 0.015632789768278598, -0.34922508597373964, 0.0012445509200915694, 0.07477393597364426, 0.06440961137413978, -0.12715326100587845, 0.14003651738166809, 0.09021680057048798, 0.017847815528512, -0.06099104881286621], [-0.04974372908473015, 0.16411531269550322, -0.027591219171881676, -0.14028117656707764, -0.01997244358062744, -0.2655159592628479, -0.0050014047883450985, -0.1117441177368164, 0.03292418047785759, -0.008973484858870506, 0.04583093896508217, 0.15204580426216124, 0.13628322780132293, 0.04320571944117546, -0.121060211956501, -0.021382348611950874, -0.026611953601241113, -0.05067026168107987, -0.019544320553541182, -0.08474062532186508, -0.3144767999649048, -0.007756355218589306, -0.027059486135840416, 0.04240468293428421, 0.12173346579074859, -0.019489793106913567, -0.003883847501128912, -0.04648652672767639, -0.06503603458404542, -0.010445293970406055, -0.24187431931495668, -0.015355630591511727, 0.08248963952064514, 0.1777275651693344, 0.1899706393480301, -0.06433022022247314, -0.12091293185949326, 0.07058268934488296, 0.055710469186306, 0.06393477767705917, 0.06530436128377914, 0.10318425595760346, 0.04671265184879303, -0.08277732878923416, -0.0028862624894827604, -0.2512152433395386, 0.016416953690350056, 0.15705419480800628, -0.020363025553524493, 0.39940338134765624, 0.10220397859811783, -0.09340793192386627, 0.15937459468841553, 0.09476536512374878, 0.024336634576320647, 0.283500075340271, 0.06103320047259331, -0.430511337518692, -0.13723556697368622, 0.01115685971453786, -0.1429813802242279, 0.02265271358191967, -0.03708506003022194, -0.011000966653227806], [-0.13261425793170928, -0.1497219830751419, -0.025509532541036606, -0.07769886553287506, -0.014215665869414806, -0.04524643123149872, 0.009774011559784412, -0.15641988217830657, -0.12308890968561173, 0.003352108644321561, -0.0023170262575149536, -0.07133483439683914, -0.05128389745950699, -0.05690273642539978, -0.07290463149547577, -0.020040016621351242, -0.15621976256370546, -0.08918325304985046, -0.2579438745975494, -0.11222562938928604, -0.10600686967372894, 0.018745440989732742, 0.012722933664917946, -0.05910230353474617, -0.08153264224529266, -0.10860059261322022, -0.013140305876731873, -0.03448810055851936, -0.022869592159986497, -0.01931316778063774, -0.07411577552556992, -0.0821569323539734, -0.030543986707925797, -0.1661666601896286, -0.10466021001338958, -0.043824002146720886, -0.08729704767465592, -0.21089381873607635, -0.02009044922888279, -0.14811036884784698, -0.02176949940621853, -0.303501158952713, 0.023046057671308517, -0.14268475770950317, 0.0027818619273602962, -0.17532529532909394, -0.1665224552154541, 0.11570786386728286, -0.17315011024475097, -0.08228385746479035, -0.1202368512749672, -0.08573575168848038, -0.11118067651987076, 0.009932237677276134, -0.14054988324642181, -0.07509940415620804, 0.0015188216930255294, -0.031234831362962723, -0.20743408799171448, -0.1448781669139862, -0.08739104121923447, 0.06336404383182526, -0.054292935878038406, -0.028393706306815147], [-0.25646370053291323, 0.1706844985485077, 0.057926878333091736, -0.19447008669376373, -0.022366633638739586, 0.08569233715534211, -0.034749649465084076, 0.08093052506446838, 0.14495384097099304, -0.054825033992528915, 0.0008356690523214638, -0.0078063566703349355, -0.03953728452324867, 0.09291613847017288, -0.11726720333099365, -0.05423101410269737, -0.12755849212408066, 0.09708738923072815, -0.030546309798955916, -0.09779589027166366, 0.18403263092041017, 0.006769823841750622, 0.0483364537358284, -0.16254692673683166, 0.0528039962053299, 0.2093458354473114, -0.06631402671337128, 0.03195604681968689, 0.22389750480651854, -0.07752072066068649, -0.0994584709405899, 0.06144965961575508, -0.0916726216673851, -0.05893107652664185, 0.11324066668748856, -0.018438488245010376, 0.1414693683385849, -0.06357785239815712, 0.08167766332626343, 0.033895940706133845, -0.10071104764938354, 0.007488985336385668, -0.06520285457372665, 0.06623998656868935, 0.07623402774333954, 0.2636642873287201, -0.11360257416963578, 0.29514747858047485, -0.014291072264313698, 0.07218744456768036, 0.025226037576794626, 0.05606285780668259, 0.06617969870567322, 0.037217527627944946, 0.03192220814526081, -0.13288753926754, -0.03511488437652588, 0.101943439245224, 0.17326168715953827, -0.3067068815231323, 0.11419060677289963, -0.06989812105894089, 0.041808005422353745, 0.06117919087409973], [-0.15889158248901367, -0.15586018860340117, 0.012766477651894093, -0.03534392379224301, -0.00557682802900672, -0.03462664261460304, 0.030612165108323097, 0.004845375288277864, -0.14534694254398345, -0.009240448474884033, -0.04354392737150192, -0.22677858173847198, -0.12610848993062973, 0.030931908637285233, 0.07675065100193024, -0.038325052708387375, -0.1709208756685257, -0.06273575574159622, -0.16148242950439454, -0.13697201609611512, -0.019304892234504222, 0.021403644233942032, 0.01655232533812523, -0.17848175168037414, 0.11713015437126159, 0.06476202011108398, 0.05283033102750778, 0.0198783278465271, 0.1257920816540718, 0.01641709730029106, -0.08166786283254623, -0.1584280639886856, 0.06633059680461884, -0.14957700669765472, -0.20903997719287873, 0.0036847025621682405, -0.08782869428396226, -0.2082694411277771, 0.010267121903598308, -0.08401928842067719, -0.019872207194566727, -0.21066414713859558, -0.04257548227906227, -0.058351314067840575, -0.04457425698637962, -0.10960150063037873, -0.23860737979412078, 0.01894019152969122, -0.03251709900796414, -0.20998737812042237, -0.025943228974938393, -0.14406366050243377, -0.16523458063602448, -0.03193972259759903, -0.06950916498899459, -0.008454929594881833, 0.08633492887020111, 0.0012904315371997654, -0.011207041144371033, 0.04695216938853264, 0.07903595566749573, 0.0752454325556755, 0.031362053006887436, 0.017924774438142776], [0.12324966639280319, 0.04457317143678665, -0.0036484897136688232, 0.041790864616632464, -0.08784348517656326, 0.1184772402048111, -0.05517490953207016, -0.0751654714345932, -0.0047108355909585954, -0.034254126250743866, 0.030023355036973953, 0.15472459495067598, 0.017288619838654994, 0.05449030175805092, -0.13187332451343536, -0.0198578629642725, 0.15377911627292634, 0.012656048312783242, 0.08629646003246308, 0.07987861931324006, -0.17981436848640442, 0.013239091262221336, 0.006640183739364147, 0.1285765737295151, -0.08527437895536423, -0.08029110729694366, -0.07585880160331726, -0.002544182585552335, -0.25486047863960265, 0.014770856127142906, 0.03413101956248284, -0.06817190200090409, -0.0191948264837265, 0.2586299479007721, 0.22769217193126678, 0.04183923453092575, -0.12128875255584717, 0.22748835682868956, 0.16970283687114715, 0.23236023485660554, -0.0195920467376709, 0.19568239748477936, 0.039865024387836456, 0.0037721744272857906, -0.08161082863807678, -0.08089234232902527, 0.265692675113678, -0.08081290125846863, -0.020755679905414583, 0.33623950481414794, 0.04404571279883385, 0.15874792039394378, 0.30277058482170105, 0.01787179708480835, -0.0007475394173525274, 0.3427841365337372, 0.023905152454972267, -0.1273820295929909, -0.17255212664604186, 0.19102853834629058, -0.13463620245456695, -0.0069091906771063805, -0.004303199239075184, -0.06482718139886856], [-0.11938537955284119, 0.18737516701221466, -0.035648055374622345, -0.08162142485380172, 0.048998355865478516, -0.006604988593608141, -0.007165959570556879, 0.11880147457122803, 0.20110721588134767, 0.010194939561188221, 0.02436843514442444, -0.0005056321970187128, -0.06847877204418182, -0.04517113417387009, -0.11776729226112366, 0.05023292824625969, -0.003168274584459141, 0.13005000352859497, -0.06302234530448914, -0.10173220038414002, 0.25326970815658567, 0.02840588055551052, 0.023623719811439514, -0.14555604159832, -0.060905924439430235, 0.23022188544273375, 0.09346398711204529, -0.02441607043147087, 0.2989418745040894, 0.019387755542993546, -0.0650061011314392, 0.02803587168455124, 0.06464287638664246, -0.05801684483885765, 0.0834747776389122, -0.02148948237299919, 0.08963741213083268, -0.010502041596919299, 0.09827639609575271, 0.07007203549146652, 0.04203810170292854, 0.02877081371843815, -0.06650295108556747, 0.10485416799783706, -0.010467263869941235, 0.21259562075138091, -0.05169271975755692, 0.24580425024032593, -0.02215978316962719, 0.05476549044251442, 0.09381308406591415, 0.048601188510656354, 0.17439433336257934, -0.03583989292383194, -0.018884117156267165, -0.062190774083137515, -0.06079714745283127, 0.09916000664234162, 0.17440992891788482, -0.19474266171455384, 0.14462996423244476, 0.0005130685749463737, -0.01319161057472229, -0.024930501356720924], [0.04296669736504555, 0.0829169899225235, 0.06732892990112305, -0.07816279083490371, -0.033012885600328445, 0.03464194498956204, -0.061158739030361176, 0.11941136121749878, 0.12039540410041809, -0.0009446978801861405, -0.04541655257344246, -0.07997021675109864, 0.07495155483484268, 0.07183607667684555, 0.15346554219722747, 0.03531989827752113, 0.10082111954689026, 0.007589231431484223, 0.10408571511507034, -0.10160009115934372, 0.28439284563064576, 0.06630592793226242, -0.005773678421974182, -0.06487407088279724, 0.10418424308300019, 0.19168776869773865, -0.051943667232990265, -0.04028656333684921, 0.3762817561626434, -0.060657765716314316, 0.04608167633414269, 0.15069346725940705, -0.0331026166677475, -0.11155874729156494, -0.17151541411876678, 0.006953754927963018, 0.1309988558292389, -0.024441010132431985, -0.10717039108276367, 0.021263544633984565, -0.011575180105865002, 0.10313772112131118, 0.0752101019024849, 0.04367048442363739, -0.04003451019525528, 0.22294569611549378, -0.09479508846998215, -0.0735925406217575, 0.1784507602453232, -0.25683009028434756, 0.1519807904958725, 0.11898140013217925, -0.10216665267944336, 0.057143937796354294, 0.19638654887676238, -0.2497011601924896, -0.03793398290872574, 0.3064082682132721, 0.3042056679725647, -0.03913386315107346, 0.2161962240934372, 0.023012619465589523, -0.022649850696325302, -0.08021436631679535], [0.05929007902741432, 0.1557934045791626, -0.041499458253383636, -0.17025627195835114, 0.024140873923897743, 0.036314114555716516, 0.008190405555069447, -0.10706435590982437, 0.048934252560138704, 0.015758519992232323, -0.04604846611618996, 0.2244552880525589, 0.05934769660234451, -0.08504478633403778, -0.046882364153862, 0.04367484152317047, 0.1523718774318695, 0.0465027816593647, 0.24992989301681517, 0.06863148510456085, -0.11644743531942367, 0.02136087417602539, 0.016264263540506363, -0.0051437413552775976, 0.029472442343831062, 0.05576475113630295, 0.009686896577477455, -0.06320467591285706, -0.0018538296746555716, 0.037435803562402725, 0.01682653184980154, 0.14838598072528839, -0.0583311952650547, 0.1482427567243576, 0.1777634620666504, -0.016034210100769997, -0.09767981469631196, 0.33695831298828127, 0.06357566341757774, 0.14973148703575134, 0.02913167141377926, 0.27891831994056704, 0.00789997261017561, 0.08856695145368576, 0.08273515850305557, 0.13269553184509278, 0.17392012476921082, -0.0049671368207782505, 0.11149649918079377, 0.2804670393466949, 0.09913207590579987, 0.14858102202415466, 0.22939461171627046, 0.06098177284002304, 0.21957354843616486, 0.11472300738096237, -0.010365894064307213, -0.11041422188282013, 0.017302725277841092, 0.0033865039004012942, -0.10516311228275299, 0.06247057393193245, -0.03720150887966156, 0.02272215113043785], [0.007674890663474798, -0.22284048199653625, 0.008930876851081848, 0.04279717057943344, -0.005360090639442205, -0.04089104980230331, 0.015010508708655834, -0.18993135988712312, -0.2094385415315628, 0.06403067708015442, 0.028682682663202286, -0.09901943951845169, 0.1382756769657135, -0.006648510694503784, 0.2910178184509277, 0.07443007826805115, 0.012118582613766193, -0.20519413352012633, -0.07127453982830048, 0.004631680750753731, -0.05486773476004601, 0.008988818153738976, 0.011644852347671986, 0.08944763094186783, 0.17040543854236603, -0.19601788520812988, 0.022221693769097328, 0.06519177556037903, -0.06806438714265824, -0.01953677460551262, -0.021995268389582635, -0.14221265614032746, 0.0722847580909729, -0.12030241638422012, -0.3034259796142578, 0.024517852813005447, 0.021005678176879882, -0.09396479576826096, -0.1958432227373123, -0.14981463253498079, 0.015465790405869484, -0.0023907784721814095, 0.02078922651708126, -0.07194604277610779, 0.06382840871810913, -0.25828027725219727, 0.037735267728567126, -0.2882071673870087, 0.012677323818206788, -0.17877475917339325, -0.07720494717359543, -0.1240268424153328, -0.2944420099258423, -0.07297573238611221, 0.16474080085754395, -0.14041284322738648, 0.011096459813416004, -0.08164882510900498, -0.22619377970695495, 0.16774858832359313, -0.04446312710642815, -0.02398572489619255, 0.011004144325852394, -0.10010839998722076]], "encoder.3.bias": [-0.1385358601808548, 0.023332805931568147, 0.12439896911382675, 0.08870679885149002, 0.013453775085508823, 0.022438640892505645, 0.1290206104516983, 0.08237898200750352, 0.11739077121019363, -0.036348069086670876, -0.03682293072342872, -0.19413430988788605, 0.10543288737535476, -0.06965959221124648, -0.036122874915599824, -0.05638841837644577, -0.019205103814601897, -0.13594768643379213, 0.02158489003777504, -0.06620487421751023, -0.05817848667502403, 0.022994614392518996, -0.11693533807992935, -0.14995344281196593, -0.07454136312007904, 0.030030418187379837, -0.005471587600186467, 0.11047737300395966, 0.044046074897050855, -0.013841607607901096, -0.05743151307106018, 0.008059275057166814], "decoder.0.weight": [[0.003013849724084139, -0.059211816638708115, -0.09887152165174484, -0.12757816910743713, 0.06556769460439682, 0.005932205822318792, 0.0146658755838871, -0.07580003887414932, -0.05111147463321686, 0.025663521140813828, -0.02931683510541916, -0.052278827875852585, -0.030969709157943726, -0.006078389007598162, -0.02387743629515171, 0.00608341908082366, -0.0285850428044796, 0.07043647021055222, -0.01628735475242138, -0.060219597071409225, -0.003979983739554882, 0.02642630785703659, 0.023232659325003624, 0.0019680752884596586, 0.020183006301522255, 0.10549257695674896, 0.01890140399336815, 0.08291830867528915, -0.014206408523023129, -0.019789686426520348, -0.07556914538145065, 0.08897044509649277], [-0.17533378005027772, 0.18229731917381287, 0.023703915625810625, -0.03912260606884956, -0.1432330220937729, 0.06572140231728554, -0.03645370863378048, 0.06861343681812286, 0.07558973282575607, -0.027759991958737372, -0.030228288471698762, -0.11755867451429367, 0.03220326490700245, -0.008811403485015034, 0.05434786453843117, -0.040127987414598464, -0.12451974004507065, -0.19154668152332305, -0.09733023643493652, -0.13745759725570678, -0.04595665037631989, -0.11144734919071198, -0.03466916382312775, 0.04810379445552826, -0.12119370251893997, -0.04046755768358708, -0.09640169441699982, 0.15989963710308075, -0.06285929456353187, -0.13819773197174073, -0.07370585799217225, 0.008486909640487284], [-0.28747336864471434, 0.37300861477851865, 0.19586657583713532, 0.013298616930842399, 0.04311016649007797, 0.311754447221756, 0.2883429884910583, 0.061515910923480986, -0.17806971073150635, 0.3738236904144287, -0.34291222095489504, -0.1638149917125702, 0.08371656835079193, 0.0734751507639885, -0.08753344118595123, -0.14753633141517639, -0.21029603183269502, -0.038867472857236865, -0.013264772109687328, -0.04145703166723251, 0.02322546299546957, -0.08145633339881897, -0.21652290523052214, 0.1622622162103653, -0.0604578822851181, -0.24587725400924682, -0.1230236679315567, 0.12857596576213837, -0.20414334237575532, -0.45698474645614623, 0.15080339908599855, -0.0566239096224308], [0.025199113041162492, 0.017469261214137076, 0.03493148982524872, 0.01486661322414875, -0.005834634276106953, -0.006267136847600341, 0.03250090703368187, 0.08128024041652679, -0.062219591438770296, 0.014920455031096935, -0.09830078482627869, 0.10698672831058502, 0.16007641851902008, -0.06885631680488587, -0.20541357398033142, 0.1240937277674675, -0.0746106043457985, -0.04761900752782822, -0.11309565305709839, -0.1475971072912216, 0.06637321636080742, 0.1217678278684616, -0.11346613466739655, -0.06805586442351341, -0.12695984840393065, -0.049681933224201204, -0.18570587038993835, 0.03636800274252892, 0.014588745683431626, -0.13118787109851837, -0.012260427279397846, 0.06189436316490173], [-0.024833958968520163, -0.037466277927160264, 0.11597868204116821, -0.11867255866527557, -0.1292055517435074, -0.03258620798587799, 0.15100891292095184, 0.0086439685896039, 0.0894099235534668, -0.09751521646976472, 0.2504906475543976, -0.15364083349704744, 0.08498947769403457, 0.07338212728500366, 0.0580140545964241, -0.017304480262100696, 0.11975681632757187, -0.010736814513802529, -0.056891254335641864, 0.008599555178079754, -0.13250378668308258, 0.07719454318284988, -0.07967927604913712, -0.2221289247274399, 0.06740349009633065, 0.08168795704841614, 0.02298445478081703, -0.0714717149734497, -0.04671997502446175, 0.060231006145477294, -0.07743680775165558, 0.023667626827955247], [0.05956147611141205, 0.010855806060135365, 0.0793168693780899, -0.04590919613838196, 0.0314507931470871, -0.05389472469687462, -0.08968066424131393, -0.07836322486400604, 0.1015031635761261, 0.018862059339880943, -0.008638361468911171, -0.008017992600798607, 0.0346563495695591, -0.06273092329502106, 0.06152784824371338, -0.10937020182609558, 0.006748270709067583, -0.03675135225057602, -0.01143520139157772, -0.03446098417043686, 0.01978863961994648, 0.01843671128153801, 0.07576604187488556, 0.007033111061900854, 0.10354142636060715, -0.04905135929584503, 0.006925091613084078, 0.057486750185489655, 0.004233843181282282, 0.03998057171702385, -0.03448076546192169, 0.059499725699424744], [-0.10984801054000855, 0.06437965780496598, -0.08183214664459229, 0.04876759126782417, -0.0628626249730587, 0.008616734761744738, -0.07620003521442413, 0.044659214466810225, 0.023878882452845574, 0.08128280639648437, 0.207072651386261, -0.02325785830616951, -0.0624368317425251, -0.12220847457647324, -0.00467453938908875, -0.030818398296833038, -0.04828840419650078, -0.06266604512929916, -0.06252419874072075, 0.04666201844811439, -0.024503525346517563, 0.05336432307958603, 0.15081858932971953, 0.01578886788338423, 0.044982240349054334, 0.02257794067263603, 0.044213616847991945, 0.012405557744204997, -0.03342183716595173, 0.03189140148460865, -0.04303789734840393, -0.009765587747097015], [-0.07343870401382446, 0.0038889951538294554, 0.0632464811205864, -0.016174480319023132, 0.00033012329367920756, 0.028763990849256516, 0.002447352511808276, -0.02326388470828533, 0.1499558538198471, -0.0922965481877327, 0.09243947267532349, 0.007822580635547638, -0.03198084980249405, 0.017867134883999825, 0.041499655693769455, -0.015367040410637856, -0.07736483961343765, 0.05269069969654083, -0.044576581567525864, 0.09608972072601318, 0.053960464894771576, -0.03306566923856735, -0.035077426582574844, 0.026132509112358093, -0.035412322729825974, -0.10227033495903015, 0.14554032683372498, 0.07486959546804428, 0.0994219183921814, -0.09693444520235062, -0.016217749565839767, 0.09734073281288147], [0.052616610378026965, -0.1472049444913864, -0.05659582018852234, 0.09703507423400878, 0.16286794245243072, -0.12204050272703171, -0.014203068427741527, 0.0438250757753849, 0.0921209380030632, -0.016018711403012274, 0.12503637075424195, -0.05185140073299408, 0.24263909459114075, -0.2168066084384918, 0.10589811354875564, 0.11270218342542648, -0.14520917236804962, -0.09348823428153992, -0.11943358778953553, -0.18423852026462556, -0.051855440437793734, 0.13398951590061187, -0.01915269736200571, -0.17454206347465515, -0.06961214244365692, -0.08920836299657822, -0.027014336362481118, -0.024214352294802666, 0.05171816349029541, 0.12953901439905166, -0.07965941578149796, 0.018760402500629426], [-0.17258884012699127, -0.008758214674890042, -0.04380863755941391, 0.01748986579477787, -0.09489193707704544, 0.1116305485367775, 0.01663611810654402, 0.07327063232660294, 0.11396284699440003, -0.08494883924722671, -0.06077440083026886, 0.0988749161362648, 0.06724539324641228, 0.10008761286735535, -0.06810516566038131, 0.00966072091832757, -0.24955930113792418, 0.026051729917526245, -0.2626134157180786, -0.03325546681880951, -0.17051622569561004, 0.09310857653617859, -0.013179442286491394, -0.13775376975536346, 0.045805661380290984, -0.0461760051548481, -0.06699915826320649, 0.05156130045652389, -0.0977624461054802, -0.12961915731430054, 0.008096001530066132, 0.05826818123459816], [0.12495439797639847, -0.08943908810615539, -0.024673404544591902, 0.22395450472831727, 0.04589729905128479, -0.2025350362062454, 0.11870846152305603, 0.12788806855678558, 0.09064525961875916, -0.009987029200419783, 0.2302488535642624, -0.10286166816949845, 0.16784055531024933, -0.2834811806678772, 0.0763632372021675, 0.07997067719697952, -0.08460432887077332, -0.060956189036369325, 0.18303840458393097, -0.013069348875433207, 0.0048062703339383, 0.016009037755429743, 0.1507697343826294, -0.21703609228134155, -0.10199621319770813, 0.09461701065301895, -0.004058669222285971, -0.019611868448555468, 0.14668685495853423, 0.021889655292034148, -0.13271463811397552, -0.04220501482486725], [0.002745422418229282, -0.03885475769639015, -0.14799719154834748, 0.024674194678664208, -0.20719620883464812, -0.025795682892203332, -0.3068584978580475, -0.010426751431077718, 0.11230710744857789, -0.24445484578609467, -0.036569274961948395, 0.0970462590456009, -0.1481800466775894, 0.045338356494903566, 0.04367898628115654, -0.1340540260076523, -0.18113284707069396, -0.07115270048379899, -0.21298297941684724, -0.037107159942388536, -0.20180737972259521, 0.06209179237484932, 0.0493622399866581, 0.12822131663560868, 0.03083902820944786, 0.1474780559539795, 0.08052853494882584, -0.049283494055271146, 0.2240815281867981, -0.021660494804382324, -0.04450758397579193, -0.09567281007766723], [-0.029570793360471727, -0.2048112630844116, 0.046747921407222746, 0.0563357450067997, -0.007003979670116678, -0.12483972162008286, 0.04329106137156487, 0.08616562634706497, 0.11336668878793717, 9.90023836493492e-06, 0.07189000695943833, 0.0011221004009712488, 0.05531131625175476, -0.05515201836824417, 0.05948990732431412, 0.03955282270908356, 0.06212315782904625, 0.05992631316184997, 0.027748726680874823, -0.04066160097718239, -0.07227700054645539, -0.11863480061292649, 0.10593245774507523, -0.23608075678348542, 0.021804886311292647, -0.007915200269781052, 0.05456529185175896, -0.08025816380977631, 0.0791149988770485, 0.0709257811307907, -0.11178277879953384, -0.07911252081394196], [0.026142991334199905, -0.07529660612344742, -0.12650660723447799, 0.11256341636180878, 0.13377818763256072, 0.02038656659424305, -0.1943408578634262, -0.03923644945025444, 0.03588247522711754, -0.015530037507414819, 0.24679254591464997, 0.054031571745872496, -0.0571439154446125, -0.02376213073730469, 0.031229156255722045, -0.15967972576618195, -0.09774409681558609, 0.1532894492149353, -0.18457332551479338, -0.16974558532238007, -0.16699624359607695, 0.07750398814678192, 0.16053050756454468, -0.11333377659320831, 0.010425640363246202, -0.07320430427789688, 0.0006512626190669834, -0.10965270847082138, 0.091413614153862, 0.022984110191464423, 0.04720068797469139, -0.07628943175077438], [0.18694943487644194, -0.23169701993465425, -0.06815750151872635, 0.255710768699646, -0.0216080904006958, -0.16858651340007783, 0.009614572394639254, 0.20363185405731202, 0.052995239943265916, -0.03270481638610363, 0.23649308383464812, 0.0029385776491835714, 0.26967549324035645, -0.4158915102481842, 0.01633799560368061, 0.29965677857398987, -0.057839732617139816, 0.02099750265479088, -0.04370993599295616, -0.1447485625743866, 0.07136050164699555, 0.19344316124916078, -0.10161853432655335, -0.29229041934013367, -0.11270633339881897, -0.05545591562986374, -0.09067519009113312, 0.06455703228712081, -0.04878984615206718, 0.10047834068536758, 0.03233398161828518, 0.05859508737921715], [-0.021018798649311065, 0.0673038125038147, -0.06488739475607871, -0.050124889612197875, -0.23188183605670928, -0.11659193187952041, -0.11683876067399979, 0.06613878160715103, 0.02766430750489235, -0.10160754173994065, 0.20607498586177825, -0.017955242283642293, -0.10168408900499344, 0.019924247451126576, 0.02213413082063198, -0.16559675931930543, 0.14624150693416596, -0.09704357981681824, -0.027447086945176124, -0.026100583001971246, -0.162667179107666, 0.08487401753664017, -0.0394697017967701, -0.09295947104692459, -0.0842406541109085, 0.1493609815835953, -0.11215803325176239, 0.032766428962349894, 0.02395354174077511, 0.20113533735275269, 0.11116177588701248, -0.08738830834627151], [0.09248425662517548, 0.14720312058925628, -0.0778205618262291, -0.0750229611992836, -0.16645362973213196, 0.04956303760409355, -0.1585007816553116, 0.08459400832653045, 0.04511852860450745, 0.032905884087085724, -0.06906540095806121, 0.17842390835285188, -0.04621114283800125, 0.06019885763525963, -0.1771753430366516, 0.04033557623624802, -0.09722717553377151, -0.059811947494745256, -0.0764430433511734, -0.12195614129304885, -0.2078818202018738, 0.04787144288420677, -0.07372485548257827, 0.09473181515932083, -0.09434065967798233, -0.040141110122203824, -0.23353178203105926, 0.1548572987318039, 0.026421894505620002, -0.13649352490901948, 0.19133770763874053, -0.149672931432724], [-0.012100221030414105, -0.11666127741336822, -0.20116182863712312, -0.09769503027200699, -0.12240372151136399, -0.03735031932592392, -0.1691419005393982, 0.10073518902063369, 0.18736090362071992, -0.22908931076526642, 0.00703871842706576, -0.13546180725097656, -0.060980676859617236, 0.02607252411544323, 0.025587286427617074, -0.1709049791097641, 0.22045264542102813, 0.001057576309540309, 0.10304970294237137, 0.017032418772578238, -0.0830216497182846, 0.05447613000869751, 0.02560764327645302, -0.008370116027072072, -0.0911875233054161, 0.2729047775268555, -0.13375925421714782, -0.017025230452418327, 0.2562554836273193, 0.01315328674390912, -0.0017113899812102318, -0.15666887462139129], [0.028038545697927474, 0.13684291541576385, -0.17324275970458985, -0.06452959999442101, -0.025419370830059053, 0.060773883014917374, -0.16247260570526123, 0.037748150527477264, 0.09355715960264206, 0.0012241417542099952, -0.07790248095989227, 0.24244132936000823, 0.05683672204613686, -0.1125046119093895, -0.18601702451705932, 0.057901305705308916, -0.4084396481513977, 0.015264804754406214, -0.18441933989524842, -0.0216138806194067, 0.05256625711917877, 0.1499646544456482, -0.13267215490341186, -0.08181676119565964, -0.05205015391111374, -0.1425887882709503, -0.11786471158266068, 0.044989533722400665, -0.22211271822452544, -0.060109890252351764, 0.17002966701984407, 0.04536327943205833], [-0.19505257904529572, -0.1290331870317459, 0.14386676251888275, -0.16697687804698944, -0.12454505413770675, 0.027149521559476853, 0.009368873247876764, 0.041822227835655215, -0.05925834476947785, -0.031752608343958856, -0.04012778773903847, -0.30892747044563296, -0.07012765631079673, 0.1969508111476898, 0.19762341678142548, -0.3283598482608795, 0.19244619309902192, -0.1655801147222519, 0.27440054416656495, -0.023873334750533104, -0.08897695243358612, 0.02956274077296257, -0.05602910071611404, -0.10209194123744965, -0.046755845099687575, 0.05974628329277039, -0.016204273886978628, 0.01413881853222847, 0.17543781995773317, 0.11880502998828887, 0.028471164777874945, -0.10494979023933411], [-0.19657250344753266, 0.0023796974564902484, -0.25681072473526, 0.006966787792043761, -0.2147803097963333, -0.06600341126322747, -0.28152498602867126, -0.06215594410896301, 0.2447098344564438, -0.16628195345401764, -0.1192469760775566, 0.02684452719986439, -0.27704458236694335, 0.236044842004776, 0.0546142540872097, -0.2651234924793243, 0.043848082423210144, -0.016865901090204714, -0.10529982447624206, 0.020512502640485764, -0.293516206741333, 0.07060701251029969, 0.08887588530778885, 0.08442296385765076, -0.10468281209468841, 0.13962282836437226, -0.1549726605415344, 0.07059750854969024, 0.18553448021411895, -0.01337276753038168, 0.046862053126096724, -0.27111139297485354], [-0.052589813619852065, -0.010044406447559596, 0.14532682597637175, 0.024479370564222336, -0.08599552363157273, -0.03578320741653442, 0.03534655570983887, 0.01884625181555748, -0.060943660140037534, -0.005299567407928407, 0.096059250831604, -0.22862410247325898, -0.09557687491178513, -0.05784327983856201, 0.3691865086555481, -0.02927699312567711, 0.20629249811172484, 0.02578148916363716, 0.164772629737854, -0.02134368158876896, -0.04093628525733948, -0.031308865547180174, 0.19896811246871948, -0.18387174010276794, 0.07633411884307861, 0.04296940565109253, 0.13231925964355468, -0.21424486935138704, 0.004367256606929004, 0.1886768341064453, -0.08992082178592682, -0.11759894490242004], [-0.26198636889457705, -0.11560173332691193, 0.1987702190876007, -0.028528457507491112, -0.1956247240304947, -0.09978135675191879, 0.06078131422400475, 0.08360550254583358, -0.044934958964586255, -0.020633311942219734, -0.09927062094211578, -0.41511762142181396, -0.1862197130918503, 0.2518130987882614, 0.27276132106781004, -0.14066018760204316, 0.23336057662963866, -0.09115812182426453, 0.18518365621566774, -0.13373009562492372, 0.06025725230574608, 0.08514440208673477, -0.03148471377789974, -0.14642153382301332, -0.002466202713549137, 0.1632810890674591, 0.038026785105466844, 0.004301756434142589, 0.033188297599554065, 0.13950117826461791, -0.15758891701698302, -0.0972311556339264], [-0.09891102015972138, -0.022379185259342193, 0.0017500759102404117, -0.0028268746100366116, -0.19992343187332154, -0.16420625150203705, -0.009991585649549961, -0.11436206698417664, 0.054849687963724136, -0.11801816970109939, -0.05213577002286911, 0.057148685306310655, -0.13247017562389374, 0.09807863682508469, -0.033216331899166104, -0.08604566156864166, 0.3869597017765045, -0.1218846321105957, 0.09755454808473588, 0.02396049313247204, -0.17768267393112183, 0.043083179742097855, 0.10042212754487992, 0.04522340446710586, -0.1290719047188759, 0.22489890456199646, -0.08246476948261261, -0.01011341530829668, 0.19356264173984528, 0.1586957961320877, 0.1554568350315094, -0.11648455113172532], [-0.13893808722496032, 0.09926033914089202, 0.02450222633779049, 0.11245315223932266, -0.0783866971731186, 0.08709664344787597, 0.11045312285423278, 0.07931265085935593, 0.05331905260682106, -0.01570064201951027, -0.2952311336994171, -0.23161912560462952, -0.058897287398576734, 0.12523287534713745, 0.029591110348701478, -0.23200022876262666, 0.08377134650945664, -0.16135093271732331, 0.08491265028715134, -0.09116240739822387, -0.07012082189321518, 0.01560260821133852, -0.18004732131958007, -0.0312742356210947, -0.07276453822851181, -0.008225236157886683, -0.11637056320905685, 0.12520689368247986, 0.10425073355436325, 0.01830788590013981, 0.052578072994947433, -0.13161764442920684], [-0.06303342059254646, -0.09887206852436066, -0.08217345029115677, 0.07355531305074692, -0.21307003498077393, -0.12604223936796188, -0.12808590978384018, 0.15547191798686982, 0.021992993354797364, -0.15055963397026062, -0.15865423381328583, -0.18016050159931182, -0.06206829324364662, 0.17288858294487, 0.07385108470916749, -0.1651428073644638, 0.185225048661232, -0.18474574387073517, 0.20223813354969025, 0.03558590337634086, -0.2050125628709793, 0.1342683345079422, -0.0009572856593877077, 0.030972570180892944, -0.2370512455701828, 0.1408993571996689, -0.06155223920941353, 0.07972725331783295, 0.06066914051771164, -0.08018299341201782, 0.10185782313346863, -0.23461344838142395], [-0.2600549221038818, -0.17328991293907164, 0.38782325983047483, -0.07869499027729035, 0.035083628818392755, 0.023146944120526314, 0.3210419714450836, 0.1465715855360031, -0.04420328363776207, 0.011373724136501551, 0.10709849298000336, -0.4505957067012787, 0.043935807049274446, -0.08291065096855163, 0.048435723036527635, 0.00919043067842722, 0.2907067000865936, -0.062180685251951216, 0.16032160818576813, 0.0028819133003707975, 0.101187202334404, -0.09793622642755509, 0.05902871042490006, -0.3723320186138153, -0.0435097299516201, -0.02279459945857525, 0.0528956301510334, -0.03663493245840073, -0.03467245139181614, 0.20613416135311127, -0.07958517223596573, -0.0026526255009230227], [0.10068113803863525, -0.0839250311255455, -0.11401895731687546, 0.013251589983701706, 0.07844519019126892, -0.09451494514942169, -0.04263214692473412, 0.06615423709154129, -0.01708536855876446, -0.04938391223549843, 0.1794076830148697, 0.023837022483348846, -0.07460894286632538, -0.09754398167133331, -0.006478024646639824, -0.036245839297771455, -0.03502575233578682, 0.08709729611873626, -0.14706164002418518, -0.11556468755006791, 0.03655797839164734, 0.03099326677620411, 0.1407438188791275, 0.11855860352516175, 0.011050917208194733, 0.0362615592777729, 0.04507604166865349, -0.07105670720338822, 0.11847460120916367, 0.04572997689247131, 0.05596234574913979, -0.14513017535209655], [0.28317040801048277, -0.19651490449905396, -0.060713624209165575, 0.22790849208831787, 0.04470149800181389, -0.03857042193412781, -0.0320293340831995, 0.19569278061389922, 0.13049112558364867, -0.006810006778687238, 0.18497722446918488, -0.05592217966914177, 0.14083349704742432, -0.3271557927131653, 0.07255595028400422, 0.1749010443687439, -0.006667918153107166, 0.04182012677192688, -0.05591564625501633, 0.041839780658483504, 0.06794995963573455, 0.15015052258968353, 0.11086230129003524, 0.019976870343089103, -0.04492504820227623, 0.07358233630657196, -0.12102289348840714, -0.049677378684282306, 0.019343261234462263, 0.18264669179916382, 0.19060036540031433, -0.007985557988286018], [0.01966012977063656, -0.12191653251647949, -0.014478912390768529, 0.0867096945643425, -0.10526471883058548, -0.0959739163517952, -0.02390500046312809, 0.009414441417902708, 0.027543879672884942, 0.028545355796813963, -0.0045963235199451445, 0.06248214691877365, -0.08562655597925187, -0.06979200094938279, 0.01383666805922985, 0.028184908628463744, -0.03546641692519188, -0.019367858953773975, 0.09601487070322037, -0.06916231215000153, -0.03266486935317516, 0.0363544799387455, 0.08056142330169677, -0.091783906519413, -0.10481616854667664, 0.04566801115870476, -0.016515734046697615, -0.030024437978863717, 0.05903759151697159, 0.09689345806837082, 0.024638552963733674, -0.058841854333877563], [-0.13962162435054778, -0.06437977254390717, 0.12229085564613343, 0.13130026459693908, -0.03197247497737408, 0.03181401789188385, 0.07795869261026382, 0.04854024425148964, 0.029640379175543786, 0.0380987748503685, -0.03921525850892067, -0.05178199261426926, 0.05811068415641785, 0.012587201036512851, -0.08725210130214692, -0.0034213894250569865, -0.2349963366985321, 0.0883078083395958, -0.0945997878909111, -0.11121763586997986, 0.13675097227096558, 0.034560217335820195, -0.10879213362932205, -0.26649160385131837, -0.04697718843817711, -0.057857728004455565, -0.029520604759454727, 0.011813925486057997, 0.02507130764424801, 0.016939346119761466, -0.11540921479463577, 0.041320919245481494], [-0.006261179689317942, 0.02981717698276043, 0.014705750159919262, 0.042577072978019714, 0.13177889585494995, 0.09905724972486496, -0.018191387876868248, -0.042182113975286484, 0.04405765235424042, 0.025166844949126244, 0.02168194390833378, -0.03334018588066101, -0.07474896311759949, -0.02216377854347229, -0.07195434719324112, 0.03503135219216347, 0.02233595959842205, -0.0910763069987297, 0.039514243602752686, 0.050091326236724854, 0.06631024926900864, -0.06611371040344238, -0.05369853228330612, 0.008988779969513416, 0.10710853338241577, 0.06948339194059372, -0.06026697903871536, -0.03481339290738106, -0.061173759400844574, -0.02907678671181202, -0.013327991589903831, -0.01926802657544613], [-0.0345394853502512, 0.014834927674382926, -0.04045607447624207, 0.05215848982334137, -0.06168522909283638, -0.04250877425074577, 0.04030466303229332, 0.0358477171510458, 0.06792808696627617, -0.025904783606529237, 0.07967804074287414, 0.1856895387172699, 0.19867032766342163, -0.07431719303131104, -0.05643457397818565, 0.1505456894636154, -0.3907337784767151, 0.06440210118889808, -0.17329379618167878, -0.05789228081703186, -0.073415507376194, 0.0734952911734581, -0.19630031883716584, -0.11035191863775254, -0.016341231018304824, -0.1887735515832901, -0.013817299716174602, 0.08631160110235214, -0.12080103158950806, 0.12839202880859374, 0.0408197931945324, 0.06233648434281349], [-0.18358035981655121, 0.18507351875305175, 0.15650673806667328, 0.04283799380064011, 0.12307155430316925, 0.2069898545742035, 0.23132246732711792, 0.06061132252216339, -0.002075446327216923, 0.17650951445102692, -0.1889440268278122, 0.054266204684972764, 0.06607901602983475, -0.04965924471616745, -0.14068650603294372, -0.014493216387927532, -0.3067300796508789, 0.02684039920568466, -0.11162029653787613, -0.05952150821685791, 0.1508658528327942, -0.14635938704013823, -0.09340158253908157, -0.1717950850725174, 0.030936062708497046, -0.3285404682159424, 0.03839490264654159, 0.05140658542513847, -0.14291824400424957, -0.12077144533395767, -0.1798160880804062, 0.0040547344950027766], [0.31857033967971804, -0.05118449255824089, 0.004386425530537963, 0.19981363117694856, 0.22844597995281218, -0.11658331155776977, -0.033174843341112134, 0.07218607068061829, -0.0484370157122612, -0.06256549209356307, -0.04018130674958229, 0.13669446408748626, 0.12526581138372422, -0.27261427640914915, -0.06644186526536941, 0.25511294007301333, -0.007561868242919445, 0.09330894947052001, 0.1429082989692688, -0.10621534138917924, 0.08308963775634766, 0.035244692116975784, -0.009811476152390242, -0.03685963861644268, 0.0034467598074115814, 0.03879024982452393, 0.03606362901628017, 0.012450523115694523, 0.0867632731795311, 0.09792489856481552, 0.0007456574705429376, 0.1880452811717987], [0.37873420119285583, -0.07228264063596726, -0.1338315486907959, 0.10583846271038055, 0.06156941950321197, -0.17224247753620148, -0.054765255004167554, 0.13985571265220642, 0.03142720423638821, -0.13171931207180024, 0.17110498249530792, 0.12812233120203018, 0.17475733160972595, -0.33030107617378235, -0.18675745725631715, 0.2695284128189087, -0.26124727725982666, 0.0018338310183025897, 0.12354251742362976, -0.17837290465831757, 0.022620037943124772, -0.0009460221510380507, -0.13024978190660477, -0.0747831866145134, -0.20835142135620116, -0.08569659143686295, 0.0040199967799708245, 0.007451515179127455, 0.015770146064460276, 0.18174235224723817, 0.029166433215141296, 0.047179192304611206], [0.0460791140794754, -0.07364615797996521, -0.0017498633824288845, -0.05656429007649422, -0.13639433979988097, -0.08422304540872574, -0.03692820370197296, 0.1651321083307266, -0.04469873234629631, -0.10591358989477158, -0.041774922609329225, -0.007151865609921515, -3.5172398202121255e-05, 0.045477567613124846, -0.030904074013233186, 0.0055587021517567335, 0.27846190333366394, -0.1505657762289047, 0.028251476213335992, -0.15298283398151397, 0.0052839632146060465, 0.07412124127149582, 0.0506706640124321, -0.033176333829760554, -0.06699391230940818, 0.07654913365840912, 0.001900592865422368, 0.08791684359312057, 0.20214432179927827, -0.009683562908321619, 0.004482327727600932, -0.12846565693616868], [-0.2676513671875, -0.12292755395174026, -0.1353508323431015, 0.09971023499965667, -0.07992349863052368, -0.13726767003536225, 0.028296298533678054, 0.007810485316440463, 0.10394986718893051, -0.1403471827507019, 0.2472846180200577, -0.22504192888736724, -0.2616213321685791, -0.023662081733345986, 0.39291751980781553, -0.2053299367427826, 0.12120055109262466, -0.04117163717746734, -0.2016364425420761, -0.009257443249225616, -0.08622985035181045, 0.027724501490592957, 0.4892484486103058, -0.18620584011077881, -0.011981222056783735, 0.24052278697490692, 0.05707069188356399, -0.17436182796955108, 0.10501419007778168, 0.1282347172498703, -0.16504465341567992, -0.11777124404907227], [-0.1049965649843216, -0.13815440833568574, -0.0276255264878273, -0.04764351397752762, -0.15848513543605805, -0.05688958242535591, 0.06450711116194725, -0.03821222484111786, 0.009849873185157777, -0.025859300792217255, 0.16276317536830903, -0.01995185501873493, -0.03415113016963005, -0.03705519810318947, -0.08191713690757751, -0.02257523462176323, -0.05366985574364662, -0.04679839685559273, -0.17717559337615968, -0.06949463486671448, -0.07236698120832444, -0.02747541479766369, 0.032933357357978824, -0.16947126388549805, 0.053496231138706204, 